{"learner":{"attributes":{"scikit_learn":"{\"_estimator_type\": \"regressor\"}"},"feature_names":[],"feature_types":[],"gradient_booster":{"model":{"cats":{"enc":[],"feature_segments":[],"sorted_idx":[]},"gbtree_model_param":{"num_parallel_tree":"1","num_trees":"100"},"iteration_indptr":[0,1,2,3,4,5,6,7,8,9,10,11,12,13,14,15,16,17,18,19,20,21,22,23,24,25,26,27,28,29,30,31,32,33,34,35,36,37,38,39,40,41,42,43,44,45,46,47,48,49,50,51,52,53,54,55,56,57,58,59,60,61,62,63,64,65,66,67,68,69,70,71,72,73,74,75,76,77,78,79,80,81,82,83,84,85,86,87,88,89,90,91,92,93,94,95,96,97,98,99,100],"tree_info":[0,0,0,0,0,0,0,0,0,0,0,0,0,0,0,0,0,0,0,0,0,0,0,0,0,0,0,0,0,0,0,0,0,0,0,0,0,0,0,0,0,0,0,0,0,0,0,0,0,0,0,0,0,0,0,0,0,0,0,0,0,0,0,0,0,0,0,0,0,0,0,0,0,0,0,0,0,0,0,0,0,0,0,0,0,0,0,0,0,0,0,0,0,0,0,0,0,0,0,0],"trees":[{"base_weights":[-1.264714E-1,6.8168054E0,-2.786162E1,-5.7301905E-2,1.3168887E1,-4.2066242E1,-1.4795611E1,-3.4610984E0,5.8954535E0,9.5840845E0,2.2172056E1,-5.0174835E1,-2.6656946E1,-2.6071095E1,-9.738405E0,-3.4195623E-1,3.9538536E-2,9.041085E-2,5.001368E-1,2.8311715E-1,7.580983E-1,9.160253E-1,1.4204292E0,-2.6293287E0,-2.025447E0,-2.0327222E0,-1.0623753E0,-1.9719452E0,-9.876081E-1,-6.5674454E-1,-1.946391E-1],"categories":[],"categories_nodes":[],"categories_segments":[],"categories_sizes":[],"default_left":[0,0,0,0,0,0,0,0,0,0,0,0,0,0,0,0,0,0,0,0,0,0,0,0,0,0,0,0,0,0,0],"id":0,"left_children":[1,3,5,7,9,11,13,15,17,19,21,23,25,27,29,-1,-1,-1,-1,-1,-1,-1,-1,-1,-1,-1,-1,-1,-1,-1,-1],"loss_changes":[9.327647E6,1.691535E6,1.7993045E6,3.770146E5,6.4960425E5,5.79169E5,2.878805E5,1.700337E5,1.1361605E5,3.1495788E5,1.37188E5,6.8807E4,1.20588875E5,1.313325E5,6.924134E4,0E0,0E0,0E0,0E0,0E0,0E0,0E0,0E0,0E0,0E0,0E0,0E0,0E0,0E0,0E0,0E0],"parents":[2147483647,0,0,1,1,2,2,3,3,4,4,5,5,6,6,7,7,8,8,9,9,10,10,11,11,12,12,13,13,14,14],"right_children":[2,4,6,8,10,12,14,16,18,20,22,24,26,28,30,-1,-1,-1,-1,-1,-1,-1,-1,-1,-1,-1,-1,-1,-1,-1,-1],"split_conditions":[1E0,9.438095E1,5.3E1,9.1E1,1.28E2,5.3E1,5.7E1,8.3E1,8.6E1,1.1E2,1.1013333E2,6.2E1,4.4E1,4.5E1,1.01E2,-3.4195623E-1,3.9538536E-2,9.041085E-2,5.001368E-1,2.8311715E-1,7.580983E-1,9.160253E-1,1.4204292E0,-2.6293287E0,-2.025447E0,-2.0327222E0,-1.0623753E0,-1.9719452E0,-9.876081E-1,-6.5674454E-1,-1.946391E-1],"split_indices":[7,23,9,17,17,14,17,14,9,14,24,17,17,14,17,0,0,0,0,0,0,0,0,0,0,0,0,0,0,0,0],"split_type":[0,0,0,0,0,0,0,0,0,0,0,0,0,0,0,0,0,0,0,0,0,0,0,0,0,0,0,0,0,0,0],"sum_hessian":[4.8435E4,3.8738E4,9.697E3,1.8605E4,2.0133E4,4.645E3,5.052E3,1.1837E4,6.768E3,1.4401E4,5.732E3,3.042E3,1.603E3,1.563E3,3.489E3,6.596E3,5.241E3,3.393E3,3.375E3,8.457E3,5.944E3,3.546E3,2.186E3,2.431E3,6.11E2,4.45E2,1.158E3,5E2,1.063E3,2.206E3,1.283E3],"tree_param":{"num_deleted":"0","num_feature":"29","num_nodes":"31","size_leaf_vector":"1"}},{"base_weights":[1.6706099E-1,6.756261E0,-2.6383236E1,-9.427815E-1,1.2057003E1,-4.001075E1,-1.3928586E1,-4.196732E0,4.369771E0,9.354413E0,2.287764E1,-4.6135677E1,-2.1564083E1,-2.330824E1,-8.548606E0,-3.4021267E-1,1.2633061E-1,1.2598225E-1,5.7087034E-1,3.3180544E-1,8.482709E-1,1.031214E0,1.5631051E0,-2.5162168E0,-1.9385722E0,-1.7898229E0,-9.196787E-1,-1.7465903E0,-8.1821203E-1,-5.684747E-1,-8.969284E-2],"categories":[],"categories_nodes":[],"categories_segments":[],"categories_sizes":[],"default_left":[0,0,0,0,0,0,0,0,0,0,0,0,0,0,0,0,0,0,0,0,0,0,0,0,0,0,0,0,0,0,0],"id":1,"left_children":[1,3,5,7,9,11,13,15,17,19,21,23,25,27,29,-1,-1,-1,-1,-1,-1,-1,-1,-1,-1,-1,-1,-1,-1,-1,-1],"loss_changes":[8.510038E6,1.5904836E6,1.641032E6,2.747399E5,6.7476125E5,5.207675E5,2.5488788E5,1.7280533E5,7.868775E4,3.8201362E5,8.649075E4,1.04962E5,5.1369375E4,1.4810356E5,6.1220438E4,0E0,0E0,0E0,0E0,0E0,0E0,0E0,0E0,0E0,0E0,0E0,0E0,0E0,0E0,0E0,0E0],"parents":[2147483647,0,0,1,1,2,2,3,3,4,4,5,5,6,6,7,7,8,8,9,9,10,10,11,11,12,12,13,13,14,14],"right_children":[2,4,6,8,10,12,14,16,18,20,22,24,26,28,30,-1,-1,-1,-1,-1,-1,-1,-1,-1,-1,-1,-1,-1,-1,-1,-1],"split_conditions":[1E0,9.17619E1,5.3E1,9.1E1,1.4E2,6.3E1,5.9E1,9.6E1,1.13E2,1.28E2,1.1938095E2,4.7E1,3.9E1,5.2E1,1.01E2,-3.4021267E-1,1.2633061E-1,1.2598225E-1,5.7087034E-1,3.3180544E-1,8.482709E-1,1.031214E0,1.5631051E0,-2.5162168E0,-1.9385722E0,-1.7898229E0,-9.196787E-1,-1.7465903E0,-8.1821203E-1,-5.684747E-1,-8.969284E-2],"split_indices":[7,23,9,9,17,14,14,17,17,14,23,17,17,17,17,0,0,0,0,0,0,0,0,0,0,0,0,0,0,0,0],"split_type":[0,0,0,0,0,0,0,0,0,0,0,0,0,0,0,0,0,0,0,0,0,0,0,0,0,0,0,0,0,0,0],"sum_hessian":[4.8642E4,3.8971E4,9.671E3,1.5891E4,2.308E4,4.617E3,5.054E3,9.855E3,6.036E3,1.8469E4,4.611E3,3.465E3,1.152E3,1.841E3,3.213E3,7.101E3,2.754E3,4.782E3,1.254E3,1.361E4,4.859E3,3.637E3,9.74E2,2.205E3,1.26E3,2.08E2,9.44E2,6.87E2,1.154E3,2.266E3,9.47E2],"tree_param":{"num_deleted":"0","num_feature":"29","num_nodes":"31","size_leaf_vector":"1"}},{"base_weights":[-1.18783504E-1,6.0695133E0,-2.4979359E1,-9.493451E-1,1.0957403E1,-3.8455673E1,-1.3457743E1,-3.749899E0,5.2145343E0,8.444972E0,2.0888044E1,-4.5694E1,-2.48456E1,-2.5161194E1,-8.718585E0,-3.1455645E-1,1.2239808E-1,1.8467534E-1,7.439077E-1,1.9084777E-1,6.2619483E-1,8.789962E-1,1.3166723E0,-2.3611462E0,-1.7630202E0,-1.8167852E0,-9.465372E-1,-1.7978117E0,-8.395258E-1,-7.5912994E-1,-2.913883E-1],"categories":[],"categories_nodes":[],"categories_segments":[],"categories_sizes":[],"default_left":[0,0,0,0,0,0,0,0,0,0,0,0,0,0,0,0,0,0,0,0,0,0,0,0,0,0,0,0,0,0,0],"id":2,"left_children":[1,3,5,7,9,11,13,15,17,19,21,23,25,27,29,-1,-1,-1,-1,-1,-1,-1,-1,-1,-1,-1,-1,-1,-1,-1,-1],"loss_changes":[7.471922E6,1.3341569E6,1.502486E6,2.7561178E5,5.71779E5,4.383365E5,2.8930544E5,1.7292097E5,7.32618E4,3.4535062E5,8.2906125E4,4.4771E4,1.04721625E5,1.3530044E5,6.936847E4,0E0,0E0,0E0,0E0,0E0,0E0,0E0,0E0,0E0,0E0,0E0,0E0,0E0,0E0,0E0,0E0],"parents":[2147483647,0,0,1,1,2,2,3,3,4,4,5,5,6,6,7,7,8,8,9,9,10,10,11,11,12,12,13,13,14,14],"right_children":[2,4,6,8,10,12,14,16,18,20,22,24,26,28,30,-1,-1,-1,-1,-1,-1,-1,-1,-1,-1,-1,-1,-1,-1,-1,-1],"split_conditions":[1E0,9.17619E1,5.1E1,9.5E1,1.4E2,5.1E1,5.4E1,9.8E1,1.5E2,9.6E1,1.1013333E2,7.6E1,4.7E1,5.2E1,5.9E1,-3.1455645E-1,1.2239808E-1,1.8467534E-1,7.439077E-1,1.9084777E-1,6.2619483E-1,8.789962E-1,1.3166723E0,-2.3611462E0,-1.7630202E0,-1.8167852E0,-9.465372E-1,-1.7978117E0,-8.395258E-1,-7.5912994E-1,-2.913883E-1],"split_indices":[7,23,9,17,17,14,17,9,17,14,24,17,17,14,14,0,0,0,0,0,0,0,0,0,0,0,0,0,0,0,0],"split_type":[0,0,0,0,0,0,0,0,0,0,0,0,0,0,0,0,0,0,0,0,0,0,0,0,0,0,0,0,0,0,0],"sum_hessian":[4.8566E4,3.8887E4,9.679E3,1.5964E4,2.2923E4,4.46E3,5.219E3,1.0977E4,4.987E3,1.8296E4,4.627E3,2.91E3,1.55E3,1.503E3,3.716E3,7.785E3,3.192E3,4.31E3,6.77E2,8.572E3,9.724E3,2.881E3,1.746E3,2.535E3,3.75E2,5.25E2,1.025E3,6.55E2,8.48E2,1.147E3,2.569E3],"tree_param":{"num_deleted":"0","num_feature":"29","num_nodes":"31","size_leaf_vector":"1"}},{"base_weights":[1.6432233E-2,5.9100614E0,-2.3726109E1,9.299812E-1,1.2459323E1,-3.6329426E1,-1.3019493E1,-4.7591243E0,4.4708133E0,9.27089E0,2.0111362E1,-4.466048E1,-2.464356E1,-2.4097588E1,-9.103159E0,-3.6639032E-1,1.9451825E-2,1.0651012E-1,5.89766E-1,3.561151E-1,7.469881E-1,8.9892894E-1,1.3904842E0,-2.2992475E0,-1.6706709E0,-1.7666855E0,-9.116098E-1,-1.6655902E0,-8.4531164E-1,-5.472131E-1,4.828416E-2],"categories":[],"categories_nodes":[],"categories_segments":[],"categories_sizes":[],"default_left":[0,0,0,0,0,0,0,0,0,0,0,0,0,0,0,0,0,0,0,0,0,0,0,0,0,0,0,0,0,0,0],"id":3,"left_children":[1,3,5,7,9,11,13,15,17,19,21,23,25,27,29,-1,-1,-1,-1,-1,-1,-1,-1,-1,-1,-1,-1,-1,-1,-1,-1],"loss_changes":[6.787292E6,1.2674078E6,1.301147E6,4.4470378E5,4.0933425E5,4.301845E5,2.2612288E5,1.119968E5,2.3325084E5,1.442275E5,8.05435E4,3.6971E4,1.2587775E5,8.9686625E4,7.149222E4,0E0,0E0,0E0,0E0,0E0,0E0,0E0,0E0,0E0,0E0,0E0,0E0,0E0,0E0,0E0,0E0],"parents":[2147483647,0,0,1,1,2,2,3,3,4,4,5,5,6,6,7,7,8,8,9,9,10,10,11,11,12,12,13,13,14,14],"right_children":[2,4,6,8,10,12,14,16,18,20,22,24,26,28,30,-1,-1,-1,-1,-1,-1,-1,-1,-1,-1,-1,-1,-1,-1,-1,-1],"split_conditions":[1E0,9.7E1,5.1E1,8.761905E1,1.07809525E2,4.6E1,5.2E1,9.1E1,1.25E2,1.41E2,1.73E2,7.8E1,4.8E1,5.2E1,1.21E2,-3.6639032E-1,1.9451825E-2,1.0651012E-1,5.89766E-1,3.561151E-1,7.469881E-1,8.9892894E-1,1.3904842E0,-2.2992475E0,-1.6706709E0,-1.7666855E0,-9.116098E-1,-1.6655902E0,-8.4531164E-1,-5.472131E-1,4.828416E-2],"split_indices":[7,17,9,23,23,14,17,9,14,17,17,17,17,14,9,0,0,0,0,0,0,0,0,0,0,0,0,0,0,0,0],"split_type":[0,0,0,0,0,0,0,0,0,0,0,0,0,0,0,0,0,0,0,0,0,0,0,0,0,0,0,0,0,0,0],"sum_hessian":[4.8503E4,3.8858E4,9.645E3,2.2074E4,1.6784E4,4.429E3,5.216E3,8.468E3,1.3606E4,1.1849E4,4.935E3,2.584E3,1.845E3,1.361E3,3.855E3,5.649E3,2.819E3,1.0312E4,3.294E3,8.594E3,3.255E3,3.867E3,1.068E3,2.309E3,2.75E2,6.9E2,1.155E3,5.95E2,7.66E2,3.259E3,5.96E2],"tree_param":{"num_deleted":"0","num_feature":"29","num_nodes":"31","size_leaf_vector":"1"}},{"base_weights":[-3.3106647E-2,5.5324645E0,-2.237802E1,-6.521883E-2,1.0966963E1,-3.5763885E1,-1.2639724E1,-2.7694235E0,4.8316793E0,6.413655E0,1.54929695E1,-4.3023083E1,-2.5094595E1,-2.4636065E1,-7.982719E0,-2.9360864E-1,1.2609753E-1,5.1517826E-2,3.8765413E-1,2.0095769E-1,6.6158694E-1,6.651141E-1,1.1465174E0,-2.3695343E0,-2.0303776E0,-1.7065266E0,-9.50597E-1,-1.7068089E0,-8.2536364E-1,-7.1016955E-1,-2.4507976E-1],"categories":[],"categories_nodes":[],"categories_segments":[],"categories_sizes":[],"default_left":[0,0,0,0,0,0,0,0,0,0,0,0,0,0,0,0,0,0,0,0,0,0,0,0,0,0,0,0,0,0,0],"id":4,"left_children":[1,3,5,7,9,11,13,15,17,19,21,23,25,27,29,-1,-1,-1,-1,-1,-1,-1,-1,-1,-1,-1,-1,-1,-1,-1,-1],"loss_changes":[6.048852E6,1.1845786E6,1.2638665E6,2.540388E5,4.070795E5,3.152285E5,3.1355238E5,2.0292247E5,7.5784984E4,1.6077334E5,1.6112575E5,2.37015E4,9.036894E4,1.2067881E5,7.749783E4,0E0,0E0,0E0,0E0,0E0,0E0,0E0,0E0,0E0,0E0,0E0,0E0,0E0,0E0,0E0,0E0],"parents":[2147483647,0,0,1,1,2,2,3,3,4,4,5,5,6,6,7,7,8,8,9,9,10,10,11,11,12,12,13,13,14,14],"right_children":[2,4,6,8,10,12,14,16,18,20,22,24,26,28,30,-1,-1,-1,-1,-1,-1,-1,-1,-1,-1,-1,-1,-1,-1,-1,-1],"split_conditions":[1E0,9.495238E1,4.8E1,9.4E1,1.02E2,4.6E1,5.2E1,9.1E1,7.7E1,1.29E2,1.44E2,2.4E1,4.8E1,5.1E1,7E1,-2.9360864E-1,1.2609753E-1,5.1517826E-2,3.8765413E-1,2.0095769E-1,6.6158694E-1,6.651141E-1,1.1465174E0,-2.3695343E0,-2.0303776E0,-1.7065266E0,-9.50597E-1,-1.7068089E0,-8.2536364E-1,-7.1016955E-1,-2.4507976E-1],"split_indices":[7,23,9,14,17,14,17,9,17,14,14,9,17,14,9,0,0,0,0,0,0,0,0,0,0,0,0,0,0,0,0],"split_type":[0,0,0,0,0,0,0,0,0,0,0,0,0,0,0,0,0,0,0,0,0,0,0,0,0,0,0,0,0,0,0],"sum_hessian":[4.8637E4,3.8939E4,9.698E3,1.9182E4,1.9757E4,4.083E3,5.615E3,1.2358E4,6.824E3,9.85E3,9.907E3,2.428E3,1.655E3,1.569E3,4.046E3,7.79E3,4.568E3,2.966E3,3.858E3,7.291E3,2.559E3,7.655E3,2.252E3,8.58E2,1.57E3,6.64E2,9.91E2,7.22E2,8.47E2,1.339E3,2.707E3],"tree_param":{"num_deleted":"0","num_feature":"29","num_nodes":"31","size_leaf_vector":"1"}},{"base_weights":[-1.0409011E-1,5.164903E0,-2.1055988E1,-7.0504194E-1,9.703116E0,-3.378495E1,-1.1432274E1,-3.5799158E0,3.4999504E0,7.1077714E0,1.820194E1,-3.8739075E1,-2.0399157E1,-2.2052666E1,-7.2926373E0,-2.5771683E-1,1.9162598E-1,-2.3131369E-2,2.969893E-1,1.6266418E-1,5.293268E-1,7.924325E-1,1.3418125E0,-2.066574E0,-1.583794E0,-1.316905E0,-6.756144E-1,-1.6920258E0,-7.8716886E-1,-4.5173272E-1,1.3139038E-1],"categories":[],"categories_nodes":[],"categories_segments":[],"categories_sizes":[],"default_left":[0,0,0,0,0,0,0,0,0,0,0,0,0,0,0,0,0,0,0,0,0,0,0,0,0,0,0,0,0,0,0],"id":5,"left_children":[1,3,5,7,9,11,13,15,17,19,21,23,25,27,29,-1,-1,-1,-1,-1,-1,-1,-1,-1,-1,-1,-1,-1,-1,-1,-1],"loss_changes":[5.3663195E6,1.03472125E6,1.196193E6,2.0476092E5,4.8305938E5,2.780635E5,2.4445806E5,1.1742291E5,6.6499516E4,2.2500638E5,1.036895E5,5.4868E4,4.6189125E4,1.1548894E5,6.92365E4,0E0,0E0,0E0,0E0,0E0,0E0,0E0,0E0,0E0,0E0,0E0,0E0,0E0,0E0,0E0,0E0],"parents":[2147483647,0,0,1,1,2,2,3,3,4,4,5,5,6,6,7,7,8,8,9,9,10,10,11,11,12,12,13,13,14,14],"right_children":[2,4,6,8,10,12,14,16,18,20,22,24,26,28,30,-1,-1,-1,-1,-1,-1,-1,-1,-1,-1,-1,-1,-1,-1,-1,-1],"split_conditions":[1E0,9.2809525E1,4.9E1,8.8E1,1.35E2,5.9E1,5.3E1,1.11E2,7.3E1,9.7E1,1.1871429E2,5.3E1,8.3E1,4.4E1,1.21E2,-2.5771683E-1,1.9162598E-1,-2.3131369E-2,2.969893E-1,1.6266418E-1,5.293268E-1,7.924325E-1,1.3418125E0,-2.066574E0,-1.583794E0,-1.316905E0,-6.756144E-1,-1.6920258E0,-7.8716886E-1,-4.5173272E-1,1.3139038E-1],"split_indices":[7,23,9,14,17,14,17,17,9,14,23,17,14,14,9,0,0,0,0,0,0,0,0,0,0,0,0,0,0,0,0],"split_type":[0,0,0,0,0,0,0,0,0,0,0,0,0,0,0,0,0,0,0,0,0,0,0,0,0,0,0,0,0,0,0],"sum_hessian":[4.8608E4,3.8841E4,9.767E3,1.6936E4,2.1905E4,4.204E3,5.563E3,1.0059E4,6.877E3,1.6782E4,5.123E3,3.067E3,1.137E3,1.559E3,4.004E3,8.297E3,1.762E3,2.621E3,4.256E3,7.962E3,8.82E3,4.028E3,1.095E3,2.24E3,8.27E2,6.09E2,5.28E2,5.42E2,1.017E3,3.406E3,5.98E2],"tree_param":{"num_deleted":"0","num_feature":"29","num_nodes":"31","size_leaf_vector":"1"}},{"base_weights":[9.018946E-2,5.159783E0,-2.0236336E1,1.9139439E0,1.3299121E1,-3.0914347E1,-1.0608324E1,-1.0543735E0,7.2138505E0,1.0184487E1,1.9448666E1,-3.7904182E1,-2.1580048E1,-1.8709738E1,-6.0165863E0,-2.2735143E-1,1.3708882E-1,1.8404527E-1,5.2069014E-1,2.7971935E-1,6.83856E-1,8.3989114E-1,1.2118562E0,-2.0768936E0,-1.7067245E0,-1.5395966E0,-8.1050396E-1,-1.0869184E0,-2.6769257E-1,-4.336446E-1,2.0782433E-2],"categories":[],"categories_nodes":[],"categories_segments":[],"categories_sizes":[],"default_left":[0,0,0,0,0,0,0,0,0,0,0,0,0,0,0,0,0,0,0,0,0,0,0,0,0,0,0,0,0,0,0],"id":6,"left_children":[1,3,5,7,9,11,13,15,17,19,21,23,25,27,29,-1,-1,-1,-1,-1,-1,-1,-1,-1,-1,-1,-1,-1,-1,-1,-1],"loss_changes":[5.0010885E6,1.0261935E6,9.9567625E5,4.3689556E5,2.1190862E5,2.98853E5,1.8945638E5,2.3604281E5,1.1267509E5,1.1780331E5,4.6838E4,3.4539E4,9.690244E4,7.443306E4,5.560139E4,0E0,0E0,0E0,0E0,0E0,0E0,0E0,0E0,0E0,0E0,0E0,0E0,0E0,0E0,0E0,0E0],"parents":[2147483647,0,0,1,1,2,2,3,3,4,4,5,5,6,6,7,7,8,8,9,9,10,10,11,11,12,12,13,13,14,14],"right_children":[2,4,6,8,10,12,14,16,18,20,22,24,26,28,30,-1,-1,-1,-1,-1,-1,-1,-1,-1,-1,-1,-1,-1,-1,-1,-1],"split_conditions":[1E0,1.0303333E2,5.3E1,9.8E1,1.28E2,4.6E1,5.9E1,8.5E1,8.8E1,9.8E1,1.1871429E2,3E1,4.8E1,1.02E2,1.01E2,-2.2735143E-1,1.3708882E-1,1.8404527E-1,5.2069014E-1,2.7971935E-1,6.83856E-1,8.3989114E-1,1.2118562E0,-2.0768936E0,-1.7067245E0,-1.5395966E0,-8.1050396E-1,-1.0869184E0,-2.6769257E-1,-4.336446E-1,2.0782433E-2],"split_indices":[7,24,9,17,14,14,14,9,14,9,23,9,17,9,17,0,0,0,0,0,0,0,0,0,0,0,0,0,0,0,0],"split_type":[0,0,0,0,0,0,0,0,0,0,0,0,0,0,0,0,0,0,0,0,0,0,0,0,0,0,0,0,0,0,0],"sum_hessian":[4.853E4,3.8843E4,9.687E3,2.777E4,1.1073E4,4.592E3,5.095E3,1.7801E4,9.969E3,7.352E3,3.721E3,2.624E3,1.968E3,1.842E3,3.253E3,9.271E3,8.53E3,4.739E3,5.23E3,3.178E3,4.174E3,2.398E3,1.323E3,1.331E3,1.293E3,7.23E2,1.245E3,1.501E3,3.41E2,2.302E3,9.51E2],"tree_param":{"num_deleted":"0","num_feature":"29","num_nodes":"31","size_leaf_vector":"1"}},{"base_weights":[6.875019E-2,4.918818E0,-1.9219614E1,1.3343118E0,1.1638406E1,-2.9348839E1,-9.873299E0,-2.0743032E0,6.3855543E0,9.521293E0,2.0682486E1,-3.357176E1,-1.5056691E1,-1.8402075E1,-6.0384974E0,-2.569169E-1,1.2915961E-1,2.5192437E-1,9.034711E-1,3.8481387E-1,8.2922554E-1,2.48289E0,1.0048407E0,-1.8489741E0,-1.3687304E0,-9.04098E-1,-3.453191E-1,-1.601462E0,-7.413835E-1,-4.5060968E-1,-4.5480493E-2],"categories":[],"categories_nodes":[],"categories_segments":[],"categories_sizes":[],"default_left":[0,0,0,0,0,0,0,0,0,0,0,0,0,0,0,0,0,0,0,0,0,0,0,0,0,0,0,0,0,0,0],"id":7,"left_children":[1,3,5,7,9,11,13,15,17,19,21,23,25,27,29,-1,-1,-1,-1,-1,-1,-1,-1,-1,-1,-1,-1,-1,-1,-1,-1],"loss_changes":[4.5399765E6,9.340311E5,9.228465E5,4.3544994E5,2.5810062E5,2.81894E5,1.6580728E5,2.1551555E5,1.6028881E5,1.4080394E5,4.2411125E4,7.52455E4,2.6233328E4,7.614431E4,5.3388203E4,0E0,0E0,0E0,0E0,0E0,0E0,0E0,0E0,0E0,0E0,0E0,0E0,0E0,0E0,0E0,0E0],"parents":[2147483647,0,0,1,1,2,2,3,3,4,4,5,5,6,6,7,7,8,8,9,9,10,10,11,11,12,12,13,13,14,14],"right_children":[2,4,6,8,10,12,14,16,18,20,22,24,26,28,30,-1,-1,-1,-1,-1,-1,-1,-1,-1,-1,-1,-1,-1,-1,-1,-1],"split_conditions":[1E0,1.07E2,5.3E1,9.7E1,1.1390476E2,6.6E1,5.7E1,9.3E1,1.1386667E2,1.59E2,8.64E0,4E1,1.07E2,3.6E1,1.01E2,-2.569169E-1,1.2915961E-1,2.5192437E-1,9.034711E-1,3.8481387E-1,8.2922554E-1,2.48289E0,1.0048407E0,-1.8489741E0,-1.3687304E0,-9.04098E-1,-3.453191E-1,-1.601462E0,-7.413835E-1,-4.5060968E-1,-4.5480493E-2],"split_indices":[7,17,9,9,23,14,17,14,24,17,6,14,14,14,17,0,0,0,0,0,0,0,0,0,0,0,0,0,0,0,0],"split_type":[0,0,0,0,0,0,0,0,0,0,0,0,0,0,0,0,0,0,0,0,0,0,0,0,0,0,0,0,0,0,0],"sum_hessian":[4.8528E4,3.8778E4,9.75E3,2.5289E4,1.3489E4,4.678E3,5.072E3,1.51E4,1.0189E4,1.0932E4,2.557E3,3.61E3,1.068E3,1.572E3,3.5E3,9.108E3,5.992E3,9.137E3,1.052E3,8.689E3,2.243E3,4.9E1,2.508E3,2.326E3,1.284E3,7.78E2,2.9E2,3.25E2,1.247E3,2.215E3,1.285E3],"tree_param":{"num_deleted":"0","num_feature":"29","num_nodes":"31","size_leaf_vector":"1"}},{"base_weights":[-5.93148E-3,4.559177E0,-1.8363535E1,-1.2034984E0,8.525084E0,-2.8110159E1,-9.358979E0,-3.8622847E0,3.162052E0,6.040108E0,1.5221084E1,-3.3636383E1,-1.8772799E1,-1.6405651E1,-5.55363E0,-2.8082415E-1,1.2941214E-1,-3.530766E-2,2.813928E-1,1.19631685E-1,4.5262057E-1,6.528354E-1,1.152113E0,-1.7423048E0,-1.1102499E0,-1.5281384E0,-7.5143844E-1,-1.2261003E0,-5.688238E-1,-4.3023625E-1,-9.569758E-2],"categories":[],"categories_nodes":[],"categories_segments":[],"categories_sizes":[],"default_left":[0,0,0,0,0,0,0,0,0,0,0,0,0,0,0,0,0,0,0,0,0,0,0,0,0,0,0,0,0,0,0],"id":8,"left_children":[1,3,5,7,9,11,13,15,17,19,21,23,25,27,29,-1,-1,-1,-1,-1,-1,-1,-1,-1,-1,-1,-1,-1,-1,-1,-1],"loss_changes":[4.072561E6,8.894514E5,8.49117E5,1.841699E5,3.8349612E5,2.3915525E5,1.3484225E5,1.1159672E5,5.729063E4,1.8472975E5,1.05312625E5,3.95785E4,7.590631E4,7.172497E4,3.6285797E4,0E0,0E0,0E0,0E0,0E0,0E0,0E0,0E0,0E0,0E0,0E0,0E0,0E0,0E0,0E0,0E0],"parents":[2147483647,0,0,1,1,2,2,3,3,4,4,5,5,6,6,7,7,8,8,9,9,10,10,11,11,12,12,13,13,14,14],"right_children":[2,4,6,8,10,12,14,16,18,20,22,24,26,28,30,-1,-1,-1,-1,-1,-1,-1,-1,-1,-1,-1,-1,-1,-1,-1,-1],"split_conditions":[1E0,9.17619E1,5.3E1,9.1E1,1.28E2,5E1,6E1,1.06E2,7.3E1,9.4E1,1.15933334E2,8.4E1,3.9E1,5.1E1,8E1,-2.8082415E-1,1.2941214E-1,-3.530766E-2,2.813928E-1,1.19631685E-1,4.5262057E-1,6.528354E-1,1.152113E0,-1.7423048E0,-1.1102499E0,-1.5281384E0,-7.5143844E-1,-1.2261003E0,-5.688238E-1,-4.3023625E-1,-9.569758E-2],"split_indices":[7,23,9,9,17,14,17,14,14,14,24,17,17,14,14,0,0,0,0,0,0,0,0,0,0,0,0,0,0,0,0],"split_type":[0,0,0,0,0,0,0,0,0,0,0,0,0,0,0,0,0,0,0,0,0,0,0,0,0,0,0,0,0,0,0],"sum_hessian":[4.8594E4,3.8917E4,9.677E3,1.5865E4,2.3052E4,4.646E3,5.031E3,9.86E3,6.005E3,1.6814E4,6.238E3,2.917E3,1.729E3,1.763E3,3.268E3,7.752E3,2.108E3,2.338E3,3.667E3,7.606E3,9.208E3,4.888E3,1.35E3,2.636E3,2.81E2,4.15E2,1.314E3,6.73E2,1.09E3,1.777E3,1.491E3],"tree_param":{"num_deleted":"0","num_feature":"29","num_nodes":"31","size_leaf_vector":"1"}},{"base_weights":[-2.0533982E-3,4.3040843E0,-1.7327265E1,-6.409809E-1,8.510443E0,-2.6609337E1,-8.7526245E0,-4.3701077E0,2.3940592E0,5.8999443E0,1.4860286E1,-3.0594797E1,-1.2550883E1,-1.6033846E1,-4.879799E0,-3.200655E-1,3.7450712E-2,1.91559E-2,3.671804E-1,1.8984671E-1,6.166144E-1,6.594078E-1,1.1837802E0,-1.6994823E0,-1.2380968E0,-5.282718E-1,-1.2277509E0,-1.4863626E0,-6.3251823E-1,-3.7672704E-1,2.4151418E-4],"categories":[],"categories_nodes":[],"categories_segments":[],"categories_sizes":[],"default_left":[0,0,0,0,0,0,0,0,0,0,0,0,0,0,0,0,0,0,0,0,0,0,0,0,0,0,0,0,0,0,0],"id":9,"left_children":[1,3,5,7,9,11,13,15,17,19,21,23,25,27,29,-1,-1,-1,-1,-1,-1,-1,-1,-1,-1,-1,-1,-1,-1,-1,-1],"loss_changes":[3.6232538E6,8.091119E5,7.6924725E5,2.0237717E5,3.4832862E5,2.5970475E5,1.4167762E5,8.3427734E4,9.811634E4,2.0146912E5,8.9943E4,7.0761E4,2.4217656E4,8.047228E4,4.257211E4,0E0,0E0,0E0,0E0,0E0,0E0,0E0,0E0,0E0,0E0,0E0,0E0,0E0,0E0,0E0,0E0],"parents":[2147483647,0,0,1,1,2,2,3,3,4,4,5,5,6,6,7,7,8,8,9,9,10,10,11,11,12,12,13,13,14,14],"right_children":[2,4,6,8,10,12,14,16,18,20,22,24,26,28,30,-1,-1,-1,-1,-1,-1,-1,-1,-1,-1,-1,-1,-1,-1,-1,-1],"split_conditions":[1E0,9.3666664E1,5.3E1,7.4E1,1.26E2,6.7E1,6E1,9.8E1,1.03E2,1.31E2,1.61E2,4.7E1,1.1E2,3.6E1,9.7E1,-3.200655E-1,3.7450712E-2,1.91559E-2,3.671804E-1,1.8984671E-1,6.166144E-1,6.594078E-1,1.1837802E0,-1.6994823E0,-1.2380968E0,-5.282718E-1,-1.2277509E0,-1.4863626E0,-6.3251823E-1,-3.7672704E-1,2.4151418E-4],"split_indices":[7,23,9,17,17,14,17,9,14,14,14,17,16,14,9,0,0,0,0,0,0,0,0,0,0,0,0,0,0,0,0],"split_type":[0,0,0,0,0,0,0,0,0,0,0,0,0,0,0,0,0,0,0,0,0,0,0,0,0,0,0,0,0,0,0],"sum_hessian":[4.8564E4,3.8897E4,9.667E3,1.7879E4,2.1018E4,4.641E3,5.026E3,8.022E3,9.857E3,1.4896E4,6.122E3,3.615E3,1.026E3,1.744E3,3.282E3,5.743E3,2.279E3,7.01E3,2.847E3,1.1227E4,3.669E3,5.148E3,9.74E2,2.282E3,1.333E3,8.82E2,1.44E2,3.44E2,1.4E3,2.126E3,1.156E3],"tree_param":{"num_deleted":"0","num_feature":"29","num_nodes":"31","size_leaf_vector":"1"}},{"base_weights":[-4.0167693E-2,4.034129E0,-1.6473698E1,1.585971E0,1.1953872E1,-2.4255762E1,-7.270893E0,-1.5865436E0,5.667033E0,7.808283E0,1.5934591E1,-3.1015627E1,-1.677655E1,-9.9346485E0,2.0078051E-1,-2.0154655E-1,1.5035936E-1,8.180976E-2,3.8263997E-1,1.57575E-1,5.6313086E-1,6.5106004E-1,1.0759248E0,-1.642711E0,-1.2601515E0,-1.2738187E0,-6.164469E-1,-6.8477756E-1,-2.1217565E-1,-6.8370305E-2,7.985172E-1],"categories":[],"categories_nodes":[],"categories_segments":[],"categories_sizes":[],"default_left":[0,0,0,0,0,0,0,0,0,0,0,0,0,0,0,0,0,0,0,0,0,0,0,0,0,0,0,0,0,0,0],"id":10,"left_children":[1,3,5,7,9,11,13,15,17,19,21,23,25,27,29,-1,-1,-1,-1,-1,-1,-1,-1,-1,-1,-1,-1,-1,-1,-1,-1],"loss_changes":[3.242768E6,7.524597E5,6.8892075E5,3.838555E5,1.5110388E5,2.63041E5,8.777295E4,1.8732069E5,1.0377925E5,7.2207125E4,7.575675E4,2.8422E4,9.55295E4,6.952566E4,2.8708193E4,0E0,0E0,0E0,0E0,0E0,0E0,0E0,0E0,0E0,0E0,0E0,0E0,0E0,0E0,0E0,0E0],"parents":[2147483647,0,0,1,1,2,2,3,3,4,4,5,5,6,6,7,7,8,8,9,9,10,10,11,11,12,12,13,13,14,14],"right_children":[2,4,6,8,10,12,14,16,18,20,22,24,26,28,30,-1,-1,-1,-1,-1,-1,-1,-1,-1,-1,-1,-1,-1,-1,-1,-1],"split_conditions":[1E0,1.0523333E2,6E1,9.1E1,1.08E2,4.4E1,9.7E1,9.8E1,7.5E1,9.7E1,1.33E2,4.3E1,4.6E1,9.3E1,1.44E2,-2.0154655E-1,1.5035936E-1,8.180976E-2,3.8263997E-1,1.57575E-1,5.6313086E-1,6.5106004E-1,1.0759248E0,-1.642711E0,-1.2601515E0,-1.2738187E0,-6.164469E-1,-6.8477756E-1,-2.1217565E-1,-6.8370305E-2,7.985172E-1],"split_indices":[7,24,14,17,14,9,9,9,14,9,17,14,17,14,17,0,0,0,0,0,0,0,0,0,0,0,0,0,0,0,0],"split_type":[0,0,0,0,0,0,0,0,0,0,0,0,0,0,0,0,0,0,0,0,0,0,0,0,0,0,0,0,0,0,0],"sum_hessian":[4.843E4,3.8809E4,9.621E3,2.9646E4,9.163E3,5.212E3,4.409E3,1.668E4,1.2966E4,4.49E3,4.673E3,2.736E3,2.476E3,3.25E3,1.159E3,1.0887E4,5.793E3,4.28E3,8.686E3,1.913E3,2.577E3,3.073E3,1.6E3,2.075E3,6.61E2,8.36E2,1.64E3,1.956E3,1.294E3,1.055E3,1.04E2],"tree_param":{"num_deleted":"0","num_feature":"29","num_nodes":"31","size_leaf_vector":"1"}},{"base_weights":[-2.0261861E-2,3.8910134E0,-1.5796388E1,4.961878E-1,8.811634E0,-2.5711914E1,-9.160915E0,-2.2879865E0,4.865384E0,7.129887E0,1.7055872E1,-2.869775E1,-1.0215184E1,-2.2378775E1,-7.1259704E0,-1.8161859E-1,3.2767454E-1,1.8617873E-1,7.431533E-1,2.3876886E-1,5.885126E-1,7.1339846E-1,1.1136184E0,-1.5586152E0,-1.133616E0,-7.8076184E-1,-1.2215332E-1,-1.4131621E0,-6.7731535E-1,-4.8023733E-1,-1.2684887E-3],"categories":[],"categories_nodes":[],"categories_segments":[],"categories_sizes":[],"default_left":[0,0,0,0,0,0,0,0,0,0,0,0,0,0,0,0,0,0,0,0,0,0,0,0,0,0,0,0,0,0,0],"id":11,"left_children":[1,3,5,7,9,11,13,15,17,19,21,23,25,27,29,-1,-1,-1,-1,-1,-1,-1,-1,-1,-1,-1,-1,-1,-1,-1,-1],"loss_changes":[2.9854E6,6.4763494E5,6.3217825E5,2.7910362E5,2.1932925E5,1.77988E5,1.5477075E5,1.6659911E5,1.0188456E5,1.4359594E5,3.8672188E4,4.74535E4,2.6151031E4,3.9533438E4,8.788058E4,0E0,0E0,0E0,0E0,0E0,0E0,0E0,0E0,0E0,0E0,0E0,0E0,0E0,0E0,0E0,0E0],"parents":[2147483647,0,0,1,1,2,2,3,3,4,4,5,5,6,6,7,7,8,8,9,9,10,10,11,11,12,12,13,13,14,14],"right_children":[2,4,6,8,10,12,14,16,18,20,22,24,26,28,30,-1,-1,-1,-1,-1,-1,-1,-1,-1,-1,-1,-1,-1,-1,-1,-1],"split_conditions":[1E0,1E2,4.7E1,9.8E1,1.45E2,7E1,3.4E1,1.31E2,1.1386667E2,1.4E2,1.33E2,5.3E1,9.5E1,7.3E1,1.01E2,-1.8161859E-1,3.2767454E-1,1.8617873E-1,7.431533E-1,2.3876886E-1,5.885126E-1,7.1339846E-1,1.1136184E0,-1.5586152E0,-1.133616E0,-7.8076184E-1,-1.2215332E-1,-1.4131621E0,-6.7731535E-1,-4.8023733E-1,-1.2684887E-3],"split_indices":[7,17,14,9,14,9,9,14,24,17,8,17,9,14,17,0,0,0,0,0,0,0,0,0,0,0,0,0,0,0,0],"split_type":[0,0,0,0,0,0,0,0,0,0,0,0,0,0,0,0,0,0,0,0,0,0,0,0,0,0,0,0,0,0,0],"sum_hessian":[4.838E4,3.8769E4,9.611E3,2.2942E4,1.5827E4,3.852E3,5.759E3,1.4013E4,8.929E3,1.3147E4,2.68E3,3.229E3,6.23E2,7.67E2,4.992E3,1.2164E4,1.849E3,8.015E3,9.14E2,8.723E3,4.424E3,1.749E3,9.31E2,2.286E3,9.43E2,3.67E2,2.56E2,4.59E2,3.08E2,3.7E3,1.292E3],"tree_param":{"num_deleted":"0","num_feature":"29","num_nodes":"31","size_leaf_vector":"1"}},{"base_weights":[8.245869E-2,3.8724515E0,-1.513548E1,-1.617569E0,6.923358E0,-2.2040613E1,-6.508569E0,-2.885522E0,4.705943E0,3.7475939E0,1.0811144E1,-2.8301018E1,-1.5196747E1,-1.2203538E1,-3.5624704E0,-3.6125025E-1,-4.839021E-2,1.891071E-1,1.1978396E0,4.2849533E-2,3.7110305E-1,4.0286618E-1,7.2552687E-1,-1.4723225E0,-9.262738E-1,-1.2652786E0,-5.9227175E-1,-7.449798E-1,-1.7945044E-1,-2.643649E-1,1.8438491E-1],"categories":[],"categories_nodes":[],"categories_segments":[],"categories_sizes":[],"default_left":[0,0,0,0,0,0,0,0,0,0,0,0,0,0,0,0,0,0,0,0,0,0,0,0,0,0,0,0,0,0,0],"id":12,"left_children":[1,3,5,7,9,11,13,15,17,19,21,23,25,27,29,-1,-1,-1,-1,-1,-1,-1,-1,-1,-1,-1,-1,-1,-1,-1,-1],"loss_changes":[2.7994728E6,6.508983E5,5.7637475E5,1.1131828E5,3.0836738E5,2.2986375E5,7.2168766E4,9.622749E4,4.115039E4,1.4603828E5,1.14288375E5,3.0874E4,8.676625E4,3.4018E4,3.5509508E4,0E0,0E0,0E0,0E0,0E0,0E0,0E0,0E0,0E0,0E0,0E0,0E0,0E0,0E0,0E0,0E0],"parents":[2147483647,0,0,1,1,2,2,3,3,4,4,5,5,6,6,7,7,8,8,9,9,10,10,11,11,12,12,13,13,14,14],"right_children":[2,4,6,8,10,12,14,16,18,20,22,24,26,28,30,-1,-1,-1,-1,-1,-1,-1,-1,-1,-1,-1,-1,-1,-1,-1,-1],"split_conditions":[1E0,9.01E1,6E1,1.18E2,1.04E2,4.5E1,5.9E1,6.2E1,1.57E2,1E2,1.05933334E2,8E1,3.9E1,1.02E2,1.21E2,-3.6125025E-1,-4.839021E-2,1.891071E-1,1.1978396E0,4.2849533E-2,3.7110305E-1,4.0286618E-1,7.2552687E-1,-1.4723225E0,-9.262738E-1,-1.2652786E0,-5.9227175E-1,-7.449798E-1,-1.7945044E-1,-2.643649E-1,1.8438491E-1],"split_indices":[7,24,9,9,17,14,14,14,17,9,24,17,17,9,9,0,0,0,0,0,0,0,0,0,0,0,0,0,0,0,0],"split_type":[0,0,0,0,0,0,0,0,0,0,0,0,0,0,0,0,0,0,0,0,0,0,0,0,0,0,0,0,0,0,0],"sum_hessian":[4.8536E4,3.8859E4,9.677E3,1.3881E4,2.4978E4,5.374E3,4.303E3,1.1563E4,2.318E3,1.3749E4,1.1229E4,2.805E3,2.569E3,1.466E3,2.837E3,3.543E3,8.02E3,2.213E3,1.05E2,7.696E3,6.053E3,6.439E3,4.79E3,2.509E3,2.96E2,6.38E2,1.931E3,1.116E3,3.5E2,2.292E3,5.45E2],"tree_param":{"num_deleted":"0","num_feature":"29","num_nodes":"31","size_leaf_vector":"1"}},{"base_weights":[8.0782786E-2,3.6339471E0,-1.4171641E1,-1.8241798E0,6.2813272E0,-2.2461637E1,-7.4395833E0,-4.4302664E0,1.3922033E0,4.6809354E0,1.3103938E1,-2.5131075E1,-9.537482E0,-1.6977268E1,-5.022009E0,-3.2452238E-1,-4.7620162E-2,-1.13986924E-1,1.8600069E-1,5.6298375E-2,3.636604E-1,5.3785825E-1,9.2213386E-1,-1.3915461E0,-9.3552697E-1,8.300746E-1,-5.254924E-1,-1.1449624E0,-6.08876E-1,-3.7013364E-1,6.0929578E-2],"categories":[],"categories_nodes":[],"categories_segments":[],"categories_sizes":[],"default_left":[0,0,0,0,0,0,0,0,0,0,0,0,0,0,0,0,0,0,0,0,0,0,0,0,0,0,0,0,0,0,0],"id":13,"left_children":[1,3,5,7,9,11,13,15,17,19,21,23,25,27,29,-1,-1,-1,-1,-1,-1,-1,-1,-1,-1,-1,-1,-1,-1,-1,-1],"loss_changes":[2.4494145E6,5.5944744E5,5.384989E5,1.0600714E5,2.8460394E5,1.4897375E5,1.2276809E5,5.0048703E4,4.839636E4,1.9461278E5,6.185675E4,6.160625E4,1.9033648E4,3.0333812E4,6.3180008E4,0E0,0E0,0E0,0E0,0E0,0E0,0E0,0E0,0E0,0E0,0E0,0E0,0E0,0E0,0E0,0E0],"parents":[2147483647,0,0,1,1,2,2,3,3,4,4,5,5,6,6,7,7,8,8,9,9,10,10,11,11,12,12,13,13,14,14],"right_children":[2,4,6,8,10,12,14,16,18,20,22,24,26,28,30,-1,-1,-1,-1,-1,-1,-1,-1,-1,-1,-1,-1,-1,-1,-1,-1],"split_conditions":[1E0,8.903333E1,5.1E1,8.3E1,1.4E2,7E1,4.3E1,8.8E1,6.9E1,8.8E1,1.1390476E2,5.4E1,8E0,7E1,1.01E2,-3.2452238E-1,-4.7620162E-2,-1.13986924E-1,1.8600069E-1,5.6298375E-2,3.636604E-1,5.3785825E-1,9.2213386E-1,-1.3915461E0,-9.3552697E-1,8.300746E-1,-5.254924E-1,-1.1449624E0,-6.08876E-1,-3.7013364E-1,6.0929578E-2],"split_indices":[7,24,14,14,17,9,9,9,17,14,23,17,14,14,17,0,0,0,0,0,0,0,0,0,0,0,0,0,0,0,0],"split_type":[0,0,0,0,0,0,0,0,0,0,0,0,0,0,0,0,0,0,0,0,0,0,0,0,0,0,0,0,0,0,0],"sum_hessian":[4.8366E4,3.8715E4,9.651E3,1.2645E4,2.607E4,4.324E3,5.327E3,6.985E3,5.66E3,2.1118E4,4.952E3,3.583E3,7.41E2,1.076E3,4.251E3,4.386E3,2.599E3,2.196E3,3.464E3,8.906E3,1.2212E4,3.442E3,1.51E3,2.52E3,1.063E3,2.6E1,7.15E2,4.8E2,5.96E2,3.077E3,1.174E3],"tree_param":{"num_deleted":"0","num_feature":"29","num_nodes":"31","size_leaf_vector":"1"}},{"base_weights":[2.467358E-2,3.410167E0,-1.3604065E1,-2.2417324E0,5.667515E0,-1.9586775E1,-5.5469503E0,-5.5855126E0,-2.7108106E-1,3.769695E0,1.0682511E1,-2.6226519E1,-1.3731862E1,-7.415729E0,3.0824027E0,-3.6728647E-1,-1.4899777E-3,-5.5182375E-2,4.1394573E-1,6.285962E-2,3.7333295E-1,4.2341575E-1,7.974188E-1,-1.3580694E0,-9.251896E-1,-1.1120389E0,-5.2690476E-1,-6.483986E-1,-2.2897242E-1,5.157676E-2,8.884412E-1],"categories":[],"categories_nodes":[],"categories_segments":[],"categories_sizes":[],"default_left":[0,0,0,0,0,0,0,0,0,0,0,0,0,0,0,0,0,0,0,0,0,0,0,0,0,0,0,0,0,0,0],"id":14,"left_children":[1,3,5,7,9,11,13,15,17,19,21,23,25,27,29,-1,-1,-1,-1,-1,-1,-1,-1,-1,-1,-1,-1,-1,-1,-1,-1],"loss_changes":[2.2439272E6,4.970252E5,4.6635538E5,7.3266305E4,2.649095E5,2.1551325E5,6.654405E4,4.0319656E4,4.981685E4,1.8759312E5,8.896806E4,1.8276E4,8.0014875E4,5.3341125E4,2.21198E4,0E0,0E0,0E0,0E0,0E0,0E0,0E0,0E0,0E0,0E0,0E0,0E0,0E0,0E0,0E0,0E0],"parents":[2147483647,0,0,1,1,2,2,3,3,4,4,5,5,6,6,7,7,8,8,9,9,10,10,11,11,12,12,13,13,14,14],"right_children":[2,4,6,8,10,12,14,16,18,20,22,24,26,28,30,-1,-1,-1,-1,-1,-1,-1,-1,-1,-1,-1,-1,-1,-1,-1,-1],"split_conditions":[1E0,8.72381E1,6.2E1,6.3E1,1.25E2,4.1E1,1.2E2,9.9E1,1.31E2,1.06E2,1.10433334E2,8E1,4E1,6E1,1.37E2,-3.6728647E-1,-1.4899777E-3,-5.5182375E-2,4.1394573E-1,6.285962E-2,3.7333295E-1,4.2341575E-1,7.974188E-1,-1.3580694E0,-9.251896E-1,-1.1120389E0,-5.2690476E-1,-6.483986E-1,-2.2897242E-1,5.157676E-2,8.884412E-1],"split_indices":[7,23,9,17,14,14,9,9,9,9,24,17,17,17,17,0,0,0,0,0,0,0,0,0,0,0,0,0,0,0,0],"split_type":[0,0,0,0,0,0,0,0,0,0,0,0,0,0,0,0,0,0,0,0,0,0,0,0,0,0,0,0,0,0,0],"sum_hessian":[4.8631E4,3.8955E4,9.676E3,1.1118E4,2.7837E4,5.552E3,4.124E3,4.122E3,6.996E3,2.0196E4,7.641E3,2.6E3,2.952E3,3.39E3,7.34E2,3.13E3,9.92E2,6.376E3,6.2E2,1.2025E4,8.171E3,5.381E3,2.26E3,2.317E3,2.83E2,8.04E2,2.148E3,1.145E3,2.245E3,6.45E2,8.9E1],"tree_param":{"num_deleted":"0","num_feature":"29","num_nodes":"31","size_leaf_vector":"1"}},{"base_weights":[4.2654295E-2,3.2112918E0,-1.2671172E1,1.1451603E0,9.372295E0,-1.834747E1,-3.7957857E0,-1.1066023E0,4.758361E0,5.616702E0,1.3010032E1,-2.2346113E1,-9.230499E0,-5.7513795E0,4.0549664E0,-1.9026086E-1,6.776013E-2,1.8304221E-1,5.462788E-1,1.1168331E-1,4.6836105E-1,5.3247595E-1,8.857314E-1,-1.266981E0,-8.476796E-1,-6.28868E-1,-2.0975435E-1,-5.2283055E-1,-1.5112437E-1,-8.2611345E-2,5.696426E-1],"categories":[],"categories_nodes":[],"categories_segments":[],"categories_sizes":[],"default_left":[0,0,0,0,0,0,0,0,0,0,0,0,0,0,0,0,0,0,0,0,0,0,0,0,0,0,0,0,0,0,0],"id":15,"left_children":[1,3,5,7,9,11,13,15,17,19,21,23,25,27,29,-1,-1,-1,-1,-1,-1,-1,-1,-1,-1,-1,-1,-1,-1,-1,-1],"loss_changes":[1.9550561E6,4.945026E5,4.87703E5,2.3670795E5,1.3321206E5,2.1506362E5,5.802652E4,1.1908259E5,7.5565516E4,6.090753E4,5.4837875E4,6.58195E4,3.0316E4,3.8809594E4,3.1595387E4,0E0,0E0,0E0,0E0,0E0,0E0,0E0,0E0,0E0,0E0,0E0,0E0,0E0,0E0,0E0,0E0],"parents":[2147483647,0,0,1,1,2,2,3,3,4,4,5,5,6,6,7,7,8,8,9,9,10,10,11,11,12,12,13,13,14,14],"right_children":[2,4,6,8,10,12,14,16,18,20,22,24,26,28,30,-1,-1,-1,-1,-1,-1,-1,-1,-1,-1,-1,-1,-1,-1,-1,-1],"split_conditions":[1E0,1.0453333E2,6.6E1,9.6E1,1.08E2,6.3E1,1.2E2,8.1E1,1.57E2,1.07E2,1.34E2,5.1E1,9.4E1,6E1,6.727E1,-1.9026086E-1,6.776013E-2,1.8304221E-1,5.462788E-1,1.1168331E-1,4.6836105E-1,5.3247595E-1,8.857314E-1,-1.266981E0,-8.476796E-1,-6.28868E-1,-2.0975435E-1,-5.2283055E-1,-1.5112437E-1,-8.2611345E-2,5.696426E-1],"split_indices":[7,24,9,17,14,14,9,9,17,9,17,17,14,14,6,0,0,0,0,0,0,0,0,0,0,0,0,0,0,0,0],"split_type":[0,0,0,0,0,0,0,0,0,0,0,0,0,0,0,0,0,0,0,0,0,0,0,0,0,0,0,0,0,0,0],"sum_hessian":[4.8528E4,3.8847E4,9.681E3,2.9092E4,9.755E3,5.904E3,3.777E3,1.7923E4,1.1169E4,4.801E3,4.954E3,4.103E3,1.801E3,3.024E3,7.53E2,8.55E3,9.373E3,9.483E3,1.686E3,2.525E3,2.276E3,3.301E3,1.653E3,2.636E3,1.467E3,1.081E3,7.2E2,1.109E3,1.915E3,4.24E2,3.29E2],"tree_param":{"num_deleted":"0","num_feature":"29","num_nodes":"31","size_leaf_vector":"1"}},{"base_weights":[2.6086008E-2,2.973725E0,-1.1859745E1,9.332546E-1,9.511107E0,-2.048977E1,-6.759975E0,-2.1981454E0,3.6610985E0,5.7097516E0,1.2392441E1,-2.2796244E1,-9.357836E0,-1.2975814E1,-2.9313898E0,-1.8958715E-1,1.6343658E-1,-3.1902257E-3,2.6692685E-1,-8.0098666E-2,3.847952E-1,5.083383E-1,8.469803E-1,-1.344335E0,-1.0225092E0,-3.081256E-1,-1.290802E0,-9.501425E-1,-3.979456E-1,-2.7164966E-1,6.3966185E-2],"categories":[],"categories_nodes":[],"categories_segments":[],"categories_sizes":[],"default_left":[0,0,0,0,0,0,0,0,0,0,0,0,0,0,0,0,0,0,0,0,0,0,0,0,0,0,0,0,0,0,0],"id":16,"left_children":[1,3,5,7,9,11,13,15,17,19,21,23,25,27,29,-1,-1,-1,-1,-1,-1,-1,-1,-1,-1,-1,-1,-1,-1,-1,-1],"loss_changes":[1.7019022E6,5.1921144E5,4.2470125E5,2.5341412E5,1.0134281E5,9.183325E4,1.4439119E5,1.20342555E5,9.906706E4,5.8013984E4,5.3122375E4,2.7942125E4,3.2288508E4,6.978706E4,3.9581434E4,0E0,0E0,0E0,0E0,0E0,0E0,0E0,0E0,0E0,0E0,0E0,0E0,0E0,0E0,0E0,0E0],"parents":[2147483647,0,0,1,1,2,2,3,3,4,4,5,5,6,6,7,7,8,8,9,9,10,10,11,11,12,12,13,13,14,14],"right_children":[2,4,6,8,10,12,14,16,18,20,22,24,26,28,30,-1,-1,-1,-1,-1,-1,-1,-1,-1,-1,-1,-1,-1,-1,-1,-1],"split_conditions":[1E0,1.0523333E2,4.4E1,8.3E1,1.02E2,7E1,6E1,1.11E2,7.1E1,7.4E1,1.34E2,2.4E1,7.992857E1,5.2E1,1.01E2,-1.8958715E-1,1.6343658E-1,-3.1902257E-3,2.6692685E-1,-8.0098666E-2,3.847952E-1,5.083383E-1,8.469803E-1,-1.344335E0,-1.0225092E0,-3.081256E-1,-1.290802E0,-9.501425E-1,-3.979456E-1,-2.7164966E-1,6.3966185E-2],"split_indices":[7,24,9,14,14,14,17,17,17,9,17,9,22,14,17,0,0,0,0,0,0,0,0,0,0,0,0,0,0,0,0],"split_type":[0,0,0,0,0,0,0,0,0,0,0,0,0,0,0,0,0,0,0,0,0,0,0,0,0,0,0,0,0,0,0],"sum_hessian":[4.8575E4,3.8923E4,9.652E3,2.9665E4,9.258E3,3.584E3,6.068E3,1.3811E4,1.5854E4,3.993E3,5.265E3,2.968E3,6.16E2,2.312E3,3.756E3,1.0694E4,3.117E3,4.923E3,1.0931E4,8.53E2,3.14E3,3.537E3,1.728E3,1.078E3,1.89E3,5.17E2,9.9E1,1.049E3,1.263E3,2.356E3,1.4E3],"tree_param":{"num_deleted":"0","num_feature":"29","num_nodes":"31","size_leaf_vector":"1"}},{"base_weights":[-2.0890454E-2,2.8075058E0,-1.1350862E1,-1.5532602E-1,6.4322324E0,-1.9066692E1,-6.0237527E0,-1.6437564E0,4.9067836E0,3.6999366E0,9.463659E0,-2.3106983E1,-1.3600952E1,-1.2718554E1,-3.0099897E0,-2.202268E-1,3.720824E-2,1.8487503E-1,5.322885E-1,4.0699523E-2,3.498744E-1,3.6731604E-1,6.3840806E-1,-1.2378992E0,-9.775934E-1,-1.0521874E0,-4.955233E-1,-8.0752605E-1,-2.2912724E-1,-2.59897E-1,8.201359E-2],"categories":[],"categories_nodes":[],"categories_segments":[],"categories_sizes":[],"default_left":[0,0,0,0,0,0,0,0,0,0,0,0,0,0,0,0,0,0,0,0,0,0,0,0,0,0,0,0,0,0,0],"id":17,"left_children":[1,3,5,7,9,11,13,15,17,19,21,23,25,27,29,-1,-1,-1,-1,-1,-1,-1,-1,-1,-1,-1,-1,-1,-1,-1,-1],"loss_changes":[1.5504005E6,4.1578978E5,3.9714638E5,1.6052514E5,1.4419262E5,8.6848125E4,1.15351375E5,1.0854258E5,3.3557445E4,8.716597E4,5.7657438E4,1.2827875E4,4.5936906E4,4.9488438E4,4.0147086E4,0E0,0E0,0E0,0E0,0E0,0E0,0E0,0E0,0E0,0E0,0E0,0E0,0E0,0E0,0E0,0E0],"parents":[2147483647,0,0,1,1,2,2,3,3,4,4,5,5,6,6,7,7,8,8,9,9,10,10,11,11,12,12,13,13,14,14],"right_children":[2,4,6,8,10,12,14,16,18,20,22,24,26,28,30,-1,-1,-1,-1,-1,-1,-1,-1,-1,-1,-1,-1,-1,-1,-1,-1],"split_conditions":[1E0,9.5E1,4.7E1,1.18E2,1.01E2,4.4E1,5.5E1,8.1E1,1.1195238E2,9.7E1,1.28E2,3.4E1,4.1E1,7.7E1,9.7E1,-2.202268E-1,3.720824E-2,1.8487503E-1,5.322885E-1,4.0699523E-2,3.498744E-1,3.6731604E-1,6.3840806E-1,-1.2378992E0,-9.775934E-1,-1.0521874E0,-4.955233E-1,-8.0752605E-1,-2.2912724E-1,-2.59897E-1,8.201359E-2],"split_indices":[7,17,9,14,9,14,17,9,23,14,8,9,17,14,9,0,0,0,0,0,0,0,0,0,0,0,0,0,0,0,0],"split_type":[0,0,0,0,0,0,0,0,0,0,0,0,0,0,0,0,0,0,0,0,0,0,0,0,0,0,0,0,0,0,0],"sum_hessian":[4.8379E4,3.8715E4,9.664E3,2.1303E4,1.7412E4,3.946E3,5.718E3,1.6463E4,4.84E3,9.159E3,8.253E3,2.267E3,1.679E3,1.774E3,3.944E3,7.635E3,8.828E3,3.999E3,8.41E2,4.885E3,4.274E3,5.032E3,3.221E3,1.544E3,7.23E2,5.55E2,1.124E3,1.247E3,5.27E2,2.682E3,1.262E3],"tree_param":{"num_deleted":"0","num_feature":"29","num_nodes":"31","size_leaf_vector":"1"}},{"base_weights":[-1.23386286E-1,2.6587834E0,-1.1278951E1,-1.414456E-1,6.170411E0,-1.696745E1,-4.8185163E0,-2.3746507E0,3.435932E0,3.4912047E0,9.305744E0,-2.1533518E1,-1.1829983E1,-1.2563613E1,-3.1546173E0,-1.7303826E-1,2.2598587E-1,1.465642E-2,2.785692E-1,3.1614568E-2,3.0911002E-1,3.9433706E-1,7.638644E-1,-1.2561067E0,-9.802217E-1,-9.730274E-1,-4.3075663E-1,-8.6340153E-1,-3.320713E-1,-1.636089E-1,3.537422E0],"categories":[],"categories_nodes":[],"categories_segments":[],"categories_sizes":[],"default_left":[0,0,0,0,0,0,0,0,0,0,0,0,0,0,0,0,0,0,0,0,0,0,0,0,0,0,0,0,0,0,0],"id":18,"left_children":[1,3,5,7,9,11,13,15,17,19,21,23,25,27,29,-1,-1,-1,-1,-1,-1,-1,-1,-1,-1,-1,-1,-1,-1,-1,-1],"loss_changes":[1.5117644E6,3.8336434E5,3.5724012E5,1.7329795E5,1.452575E5,1.21023125E5,5.8648023E4,1.0001882E5,5.5950523E4,7.175941E4,6.7405875E4,1.8448125E4,5.9565625E4,2.2312969E4,3.2811777E4,0E0,0E0,0E0,0E0,0E0,0E0,0E0,0E0,0E0,0E0,0E0,0E0,0E0,0E0,0E0,0E0],"parents":[2147483647,0,0,1,1,2,2,3,3,4,4,5,5,6,6,7,7,8,8,9,9,10,10,11,11,12,12,13,13,14,14],"right_children":[2,4,6,8,10,12,14,16,18,20,22,24,26,28,30,-1,-1,-1,-1,-1,-1,-1,-1,-1,-1,-1,-1,-1,-1,-1,-1],"split_conditions":[1E0,9.6E1,5.9E1,9.8E1,1.02E2,4.4E1,4.2E1,1.29E2,8.3E1,9.3E1,5.1738167E1,2.3E1,4.1E1,8.5E1,2.27E2,-1.7303826E-1,2.2598587E-1,1.465642E-2,2.785692E-1,3.1614568E-2,3.0911002E-1,3.9433706E-1,7.638644E-1,-1.2561067E0,-9.802217E-1,-9.730274E-1,-4.3075663E-1,-8.6340153E-1,-3.320713E-1,-1.636089E-1,3.537422E0],"split_indices":[7,17,14,9,14,9,9,14,14,9,27,9,17,14,9,0,0,0,0,0,0,0,0,0,0,0,0,0,0,0,0],"split_type":[0,0,0,0,0,0,0,0,0,0,0,0,0,0,0,0,0,0,0,0,0,0,0,0,0,0,0,0,0,0,0],"sum_hessian":[4.8707E4,3.8985E4,9.722E3,2.169E4,1.7295E4,5.169E3,4.553E3,1.3354E4,8.336E3,9.327E3,7.968E3,2.735E3,2.434E3,8.04E2,3.749E3,1.1537E4,1.817E3,3.373E3,4.963E3,4.523E3,4.804E3,6.44E3,1.528E3,9.52E2,1.783E3,7.2E2,1.714E3,4.47E2,3.57E2,3.744E3,5E0],"tree_param":{"num_deleted":"0","num_feature":"29","num_nodes":"31","size_leaf_vector":"1"}},{"base_weights":[1.3556801E-1,2.7866905E0,-1.0481787E1,-1.2528453E0,5.3362694E0,-1.833255E1,-6.557213E0,-4.1383586E0,8.838629E-1,4.0404954E0,1.0633732E1,-2.020935E1,-6.2548776E0,-1.1288651E1,-2.8922806E0,-2.6864132E-1,1.1140313E-1,1.4793794E-1,-8.5485846E-2,9.056805E-2,3.5850385E-1,4.9438366E-1,1.1461018E0,-1.0512666E0,-6.948411E-1,-3.5663432E-1,1.8092381E0,-7.0903105E-1,-2.1654193E-1,-7.519948E-2,-5.301291E-1],"categories":[],"categories_nodes":[],"categories_segments":[],"categories_sizes":[],"default_left":[0,0,0,0,0,0,0,0,0,0,0,0,0,0,0,0,0,0,0,0,0,0,0,0,0,0,0,0,0,0,0],"id":19,"left_children":[1,3,5,7,9,11,13,15,17,19,21,23,25,27,29,-1,-1,-1,-1,-1,-1,-1,-1,-1,-1,-1,-1,-1,-1,-1,-1],"loss_changes":[1.3659346E6,3.9993166E5,2.9862238E5,9.264646E4,1.63369E5,7.3111875E4,1.1209041E5,5.0255453E4,4.6468133E4,1.3343584E5,4.2660312E4,1.410975E4,1.6500777E4,5.672228E4,3.9000645E4,0E0,0E0,0E0,0E0,0E0,0E0,0E0,0E0,0E0,0E0,0E0,0E0,0E0,0E0,0E0,0E0],"parents":[2147483647,0,0,1,1,2,2,3,3,4,4,5,5,6,6,7,7,8,8,9,9,10,10,11,11,12,12,13,13,14,14],"right_children":[2,4,6,8,10,12,14,16,18,20,22,24,26,28,30,-1,-1,-1,-1,-1,-1,-1,-1,-1,-1,-1,-1,-1,-1,-1,-1],"split_conditions":[1E0,9.095238E1,4.1E1,7.2E1,1.4E2,7E1,6.4E1,1.11E2,8.446E1,1.07E2,2.01E2,8E1,8.5E2,8.3E1,8.436667E1,-2.6864132E-1,1.1140313E-1,1.4793794E-1,-8.5485846E-2,9.056805E-2,3.5850385E-1,4.9438366E-1,1.1461018E0,-1.0512666E0,-6.948411E-1,-3.5663432E-1,1.8092381E0,-7.0903105E-1,-2.1654193E-1,-7.519948E-2,-5.301291E-1],"split_indices":[7,23,14,14,17,9,17,17,6,9,8,17,0,14,24,0,0,0,0,0,0,0,0,0,0,0,0,0,0,0,0],"split_type":[0,0,0,0,0,0,0,0,0,0,0,0,0,0,0,0,0,0,0,0,0,0,0,0,0,0,0,0,0,0,0],"sum_hessian":[4.8525E4,3.883E4,9.695E3,1.5025E4,2.3805E4,3.23E3,6.465E3,6.392E3,8.633E3,1.9128E4,4.677E3,2.795E3,4.35E2,2.821E3,3.644E3,5.354E3,1.038E3,4.796E3,3.837E3,1.1172E4,7.956E3,4.411E3,2.66E2,2.473E3,3.22E2,4.27E2,8E0,1.992E3,8.29E2,3.089E3,5.55E2],"tree_param":{"num_deleted":"0","num_feature":"29","num_nodes":"31","size_leaf_vector":"1"}},{"base_weights":[2.5371863E-2,2.4950604E0,-9.961421E0,-8.849499E-2,5.652302E0,-1.5158621E1,-4.495148E0,-1.4036417E0,4.91812E0,4.646793E0,1.2760081E1,-1.7058428E1,-4.89676E0,-9.6193905E0,-2.6192265E0,-1.53421E-1,7.7623434E-2,6.208073E-2,3.5735917E-1,1.842065E-1,5.355E-1,9.043975E-1,5.2672094E-1,-9.40834E-1,-4.723374E-1,-1.2162658E-1,-9.8524106E-1,-6.8856174E-1,-1.3775761E-1,-7.823617E-2,-4.964473E-1],"categories":[],"categories_nodes":[],"categories_segments":[],"categories_sizes":[],"default_left":[0,0,0,0,0,0,0,0,0,0,0,0,0,0,0,0,0,0,0,0,0,0,0,0,0,0,0,0,0,0,0],"id":20,"left_children":[1,3,5,7,9,11,13,15,17,19,21,23,25,27,29,-1,-1,-1,-1,-1,-1,-1,-1,-1,-1,-1,-1,-1,-1,-1,-1],"loss_changes":[1.1972284E6,3.1744284E5,2.7334312E5,1.4094011E5,1.25112125E5,9.6088125E4,4.5077484E4,8.343009E4,3.6484188E4,8.952659E4,2.5541406E4,5.552325E4,2.8122691E4,3.57856E4,2.6469568E4,0E0,0E0,0E0,0E0,0E0,0E0,0E0,0E0,0E0,0E0,0E0,0E0,0E0,0E0,0E0,0E0],"parents":[2147483647,0,0,1,1,2,2,3,3,4,4,5,5,6,6,7,7,8,8,9,9,10,10,11,11,12,12,13,13,14,14],"right_children":[2,4,6,8,10,12,14,16,18,20,22,24,26,28,30,-1,-1,-1,-1,-1,-1,-1,-1,-1,-1,-1,-1,-1,-1,-1,-1],"split_conditions":[1E0,9.5E1,5.6E1,1.21E2,1.15933334E2,8.1E1,5.4E1,9.8E1,8.1E1,1.46E2,2.764E1,7.2E1,8.736667E1,8.6E1,4.57E2,-1.53421E-1,7.7623434E-2,6.208073E-2,3.5735917E-1,1.842065E-1,5.355E-1,9.043975E-1,5.2672094E-1,-9.40834E-1,-4.723374E-1,-1.2162658E-1,-9.8524106E-1,-6.8856174E-1,-1.3775761E-1,-7.823617E-2,-4.964473E-1],"split_indices":[7,17,9,14,24,14,17,9,9,14,3,17,24,9,0,0,0,0,0,0,0,0,0,0,0,0,0,0,0,0,0],"split_type":[0,0,0,0,0,0,0,0,0,0,0,0,0,0,0,0,0,0,0,0,0,0,0,0,0,0,0,0,0,0,0],"sum_hessian":[4.8539E4,3.8916E4,9.623E3,2.1403E4,1.7513E4,4.932E3,4.691E3,1.6951E4,4.452E3,1.5344E4,2.169E3,4.161E3,7.71E2,1.256E3,3.435E3,1.0844E4,6.107E3,1.681E3,2.771E3,1.3243E4,2.101E3,6.37E2,1.532E3,3.379E3,7.82E2,6.62E2,1.09E2,7.82E2,4.74E2,3.003E3,4.32E2],"tree_param":{"num_deleted":"0","num_feature":"29","num_nodes":"31","size_leaf_vector":"1"}},{"base_weights":[-7.554813E-2,2.2647903E0,-9.491883E0,7.7965426E-1,7.8654456E0,-1.32813835E1,-2.0160382E0,-2.2591941E0,3.0183818E0,6.748962E0,1.5299519E1,-1.9808403E1,-1.004977E1,-5.9531555E0,7.198624E-1,-2.9471955E-1,-3.412204E-2,2.246764E-2,2.4026911E-1,2.1282358E-1,4.5687994E-1,6.7792785E-1,1.4980549E0,-8.7390894E-1,-1.0638573E0,-8.851166E-1,-3.5481E-1,-2.0129459E-1,-7.4937505E-1,2.1753907E-1,-2.128365E-1],"categories":[],"categories_nodes":[],"categories_segments":[],"categories_sizes":[],"default_left":[0,0,0,0,0,0,0,0,0,0,0,0,0,0,0,0,0,0,0,0,0,0,0,0,0,0,0,0,0,0,0],"id":21,"left_children":[1,3,5,7,9,11,13,15,17,19,21,23,25,27,29,-1,-1,-1,-1,-1,-1,-1,-1,-1,-1,-1,-1,-1,-1,-1,-1],"loss_changes":[1.0695191E6,3.2331256E5,2.7366656E5,2.0903372E5,6.751694E4,1.3502688E5,3.5022633E4,7.4704375E4,8.121928E4,4.214278E4,2.6727125E4,6.8906875E3,9.683853E4,2.3149277E4,3.4694086E4,0E0,0E0,0E0,0E0,0E0,0E0,0E0,0E0,0E0,0E0,0E0,0E0,0E0,0E0,0E0,0E0],"parents":[2147483647,0,0,1,1,2,2,3,3,4,4,5,5,6,6,7,7,8,8,9,9,10,10,11,11,12,12,13,13,14,14],"right_children":[2,4,6,8,10,12,14,16,18,20,22,24,26,28,30,-1,-1,-1,-1,-1,-1,-1,-1,-1,-1,-1,-1,-1,-1,-1,-1],"split_conditions":[1E0,1.26E2,7.3E1,9.063333E1,1.95E2,3.4E1,6.6E1,6.2E1,2.22E2,1E2,1.86E2,5.2E1,3.9E1,8.18E1,6.8E1,-2.9471955E-1,-3.412204E-2,2.246764E-2,2.4026911E-1,2.1282358E-1,4.5687994E-1,6.7792785E-1,1.4980549E0,-8.7390894E-1,-1.0638573E0,-8.851166E-1,-3.5481E-1,-2.0129459E-1,-7.4937505E-1,2.1753907E-1,-2.128365E-1],"split_indices":[7,17,14,24,17,9,9,14,0,14,14,18,17,24,19,0,0,0,0,0,0,0,0,0,0,0,0,0,0,0,0],"split_type":[0,0,0,0,0,0,0,0,0,0,0,0,0,0,0,0,0,0,0,0,0,0,0,0,0,0,0,0,0,0,0],"sum_hessian":[4.853E4,3.887E4,9.66E3,3.0724E4,8.146E3,6.41E3,3.25E3,1.3033E4,1.7691E4,7.084E3,1.062E3,2.121E3,4.289E3,1.332E3,1.918E3,3.942E3,9.091E3,7.258E3,1.0433E4,3.468E3,3.616E3,9.51E2,1.11E2,8.25E2,1.296E3,1.193E3,3.096E3,1.099E3,2.33E2,1.109E3,8.09E2],"tree_param":{"num_deleted":"0","num_feature":"29","num_nodes":"31","size_leaf_vector":"1"}},{"base_weights":[-1.9286035E-1,-6.0665965E0,3.077794E0,-1.100896E1,-2.2865252E0,2.1515615E0,9.410509E0,-1.6049625E1,-7.6161485E0,-4.9284396E0,6.1831232E-2,1.4679831E0,9.250594E0,4.2897076E1,9.136288E0,-8.537741E-1,-3.6209998E-1,-6.394767E-1,-2.6760575E-1,-5.757922E-1,-1.7389728E-1,1.6503964E-1,-1.02001205E-1,-6.59684E-2,1.5833817E-1,4.4880483E-1,2.9333267E0,3.367902E0,-4.9622902E-1,1.73088E-1,5.2287734E-1],"categories":[],"categories_nodes":[],"categories_segments":[],"categories_sizes":[],"default_left":[0,0,0,0,0,0,0,0,0,0,0,0,0,0,0,0,0,0,0,0,0,0,0,0,0,0,0,0,0,0,0],"id":22,"left_children":[1,3,5,7,9,11,13,15,17,19,21,23,25,27,29,-1,-1,-1,-1,-1,-1,-1,-1,-1,-1,-1,-1,-1,-1,-1,-1],"loss_changes":[9.313084E5,3.2391044E5,1.826276E5,1.2838231E5,6.0962355E4,1.3182097E5,3.6091094E4,2.718125E4,5.2556797E4,4.414222E4,3.5427863E4,1.1734936E5,3.1838484E4,4.2014695E4,2.9519E4,0E0,0E0,0E0,0E0,0E0,0E0,0E0,0E0,0E0,0E0,0E0,0E0,0E0,0E0,0E0,0E0],"parents":[2147483647,0,0,1,1,2,2,3,3,4,4,5,5,6,6,7,7,8,8,9,9,10,10,11,11,12,12,13,13,14,14],"right_children":[2,4,6,8,10,12,14,16,18,20,22,24,26,28,30,-1,-1,-1,-1,-1,-1,-1,-1,-1,-1,-1,-1,-1,-1,-1,-1],"split_conditions":[8.4333336E1,5.9E1,1.1386667E2,4.4E1,7.2E1,1.57E2,7.54E0,8.5E1,4.6E1,4.2E1,6E1,8.1E1,1.4757143E2,9.9E1,7.6E1,-8.537741E-1,-3.6209998E-1,-6.394767E-1,-2.6760575E-1,-5.757922E-1,-1.7389728E-1,1.6503964E-1,-1.02001205E-1,-6.59684E-2,1.5833817E-1,4.4880483E-1,2.9333267E0,3.367902E0,-4.9622902E-1,1.73088E-1,5.2287734E-1],"split_indices":[23,14,24,9,9,17,6,17,17,17,18,9,21,1,9,0,0,0,0,0,0,0,0,0,0,0,0,0,0,0,0],"split_type":[0,0,0,0,0,0,0,0,0,0,0,0,0,0,0,0,0,0,0,0,0,0,0,0,0,0,0,0,0,0,0],"sum_hessian":[4.8476E4,1.7338E4,3.1138E4,7.513E3,9.825E3,2.7166E4,3.972E3,3.021E3,4.492E3,4.623E3,5.202E3,2.4781E4,2.385E3,3.1E1,3.941E3,2.705E3,3.16E2,1.366E3,3.126E3,8.33E2,3.79E3,2.047E3,3.155E3,9.384E3,1.5397E4,2.373E3,1.2E1,2.1E1,1E1,7.45E2,3.196E3],"tree_param":{"num_deleted":"0","num_feature":"29","num_nodes":"31","size_leaf_vector":"1"}},{"base_weights":[1.534183E-1,2.340055E0,-8.6559305E0,9.5111555E-1,7.7814555E0,-1.3745186E1,-4.3353763E0,-1.526618E0,3.0759132E0,7.023934E0,1.5778936E1,-1.5380567E1,-3.383074E0,-6.717237E0,-1.22513555E-1,-1.1744838E-1,2.4883933E-1,7.362487E-2,3.265191E-1,2.2439115E-1,4.9938017E-1,3.6575854E-1,1.0681232E0,-8.737295E-1,-5.649943E-1,1.2863752E0,-2.3937109E-1,-7.5170946E-1,-2.6667884E-1,3.71583E-1,-1.6149865E-1],"categories":[],"categories_nodes":[],"categories_segments":[],"categories_sizes":[],"default_left":[0,0,0,0,0,0,0,0,0,0,0,0,0,0,0,0,0,0,0,0,0,0,0,0,0,0,0,0,0,0,0],"id":23,"left_children":[1,3,5,7,9,11,13,15,17,19,21,23,25,27,29,-1,-1,-1,-1,-1,-1,-1,-1,-1,-1,-1,-1,-1,-1,-1,-1],"loss_changes":[9.3448006E5,2.9372556E5,2.1206256E5,1.6301505E5,4.7767562E4,7.500181E4,5.2368984E4,7.6462375E4,9.231916E4,5.4229625E4,3.2120719E4,3.2487312E4,2.4856402E4,3.8286953E4,4.429651E4,0E0,0E0,0E0,0E0,0E0,0E0,0E0,0E0,0E0,0E0,0E0,0E0,0E0,0E0,0E0,0E0],"parents":[2147483647,0,0,1,1,2,2,3,3,4,4,5,5,6,6,7,7,8,8,9,9,10,10,11,11,12,12,13,13,14,14],"right_children":[2,4,6,8,10,12,14,16,18,20,22,24,26,28,30,-1,-1,-1,-1,-1,-1,-1,-1,-1,-1,-1,-1,-1,-1,-1,-1],"split_conditions":[1E0,1.07809525E2,5.2E1,8.3E1,1.9E2,7.9E1,9.3E1,1.34E2,1E0,1.1386667E2,9.4E1,5.1E1,8E0,3.5E1,3.8E1,-1.1744838E-1,2.4883933E-1,7.362487E-2,3.265191E-1,2.2439115E-1,4.9938017E-1,3.6575854E-1,1.0681232E0,-8.737295E-1,-5.649943E-1,1.2863752E0,-2.3937109E-1,-7.5170946E-1,-2.6667884E-1,3.71583E-1,-1.6149865E-1],"split_indices":[7,23,14,14,17,9,14,9,5,24,11,17,14,9,15,0,0,0,0,0,0,0,0,0,0,0,0,0,0,0,0],"split_type":[0,0,0,0,0,0,0,0,0,0,0,0,0,0,0,0,0,0,0,0,0,0,0,0,0,0,0,0,0,0,0],"sum_hessian":[4.851E4,3.8864E4,9.646E3,3.0962E4,7.902E3,4.428E3,5.218E3,1.4294E4,1.6668E4,7.22E3,6.82E2,3.824E3,6.04E2,3.333E3,1.885E3,1.269E4,1.604E3,1.1385E4,5.283E3,3.892E3,3.328E3,2.72E2,4.1E2,2.525E3,1.299E3,2.7E1,5.77E2,4.74E2,2.859E3,5.49E2,1.336E3],"tree_param":{"num_deleted":"0","num_feature":"29","num_nodes":"31","size_leaf_vector":"1"}},{"base_weights":[8.713392E-2,2.1648242E0,-8.275589E0,8.512301E-1,7.289188E0,-1.3571849E1,-4.4828973E0,-1.4924289E0,2.8793046E0,6.5012083E0,1.5756182E1,-1.5376914E1,-6.5660224E0,-1.3119251E1,-3.284581E0,-1.3411789E-1,1.2582457E-1,4.46151E-2,2.4177992E-1,9.965804E-2,3.8346204E-1,3.7993104E0,7.5061953E-1,-9.6845096E-1,-6.8197715E-1,-1.6347727E-2,-5.1173663E-1,-7.4370223E-1,4.527851E-1,-2.1047233E-1,1.6427587E-1],"categories":[],"categories_nodes":[],"categories_segments":[],"categories_sizes":[],"default_left":[0,0,0,0,0,0,0,0,0,0,0,0,0,0,0,0,0,0,0,0,0,0,0,0,0,0,0,0,0,0,0],"id":24,"left_children":[1,3,5,7,9,11,13,15,17,19,21,23,25,27,29,-1,-1,-1,-1,-1,-1,-1,-1,-1,-1,-1,-1,-1,-1,-1,-1],"loss_changes":[8.449886E5,2.6220616E5,1.94342E5,1.4738412E5,5.292522E4,5.0963438E4,5.8336086E4,6.862795E4,6.461197E4,3.8281E4,2.914311E4,2.1999688E4,1.897191E4,2.6867562E4,3.0122668E4,0E0,0E0,0E0,0E0,0E0,0E0,0E0,0E0,0E0,0E0,0E0,0E0,0E0,0E0,0E0,0E0],"parents":[2147483647,0,0,1,1,2,2,3,3,4,4,5,5,6,6,7,7,8,8,9,9,10,10,11,11,12,12,13,13,14,14],"right_children":[2,4,6,8,10,12,14,16,18,20,22,24,26,28,30,-1,-1,-1,-1,-1,-1,-1,-1,-1,-1,-1,-1,-1,-1,-1,-1],"split_conditions":[1E0,1.07809525E2,4.8E1,8.3E1,1.9E2,6.7E1,3.5E1,1.11E2,8.9E1,7.6E1,2E1,2.3E1,4.9E1,1.2E2,1.2E2,-1.3411789E-1,1.2582457E-1,4.46151E-2,2.4177992E-1,9.965804E-2,3.8346204E-1,3.7993104E0,7.5061953E-1,-9.6845096E-1,-6.8197715E-1,-1.6347727E-2,-5.1173663E-1,-7.4370223E-1,4.527851E-1,-2.1047233E-1,1.6427587E-1],"split_indices":[7,23,9,14,17,14,17,17,17,9,19,9,15,9,14,0,0,0,0,0,0,0,0,0,0,0,0,0,0,0,0],"split_type":[0,0,0,0,0,0,0,0,0,0,0,0,0,0,0,0,0,0,0,0,0,0,0,0,0,0,0,0,0,0,0],"sum_hessian":[4.863E4,3.8953E4,9.677E3,3.1006E4,7.947E3,4.037E3,5.64E3,1.4384E4,1.6622E4,7.272E3,6.75E2,3.209E3,8.28E2,6.86E2,4.954E3,1.1092E4,3.292E3,8.247E3,8.375E3,1.497E3,5.775E3,7E0,6.68E2,9.7E2,2.239E3,3.07E2,5.21E2,6.36E2,5E1,4.343E3,6.11E2],"tree_param":{"num_deleted":"0","num_feature":"29","num_nodes":"31","size_leaf_vector":"1"}},{"base_weights":[1.0780638E-2,1.926285E0,-7.7354536E0,-1.6461889E0,3.662156E0,-1.41409445E1,-4.764815E0,-3.9749374E0,5.5185837E-1,2.6553133E0,9.276197E0,-1.4900651E1,-1.1708137E-1,-1.345004E1,-3.197697E0,-2.9226354E-1,-9.7624294E-2,-2.5568888E-4,5.551936E-1,-7.492933E-3,1.9401385E-1,6.2797725E-1,3.6896464E-1,-7.874796E-1,-4.675854E-1,-3.232543E-1,7.2825587E-1,-5.61559E-1,-1.0785731E0,-2.449882E-1,1.02317944E-1],"categories":[],"categories_nodes":[],"categories_segments":[],"categories_sizes":[],"default_left":[0,0,0,0,0,0,0,0,0,0,0,0,0,0,0,0,0,0,0,0,0,0,0,0,0,0,0,0,0,0,0],"id":25,"left_children":[1,3,5,7,9,11,13,15,17,19,21,23,25,27,29,-1,-1,-1,-1,-1,-1,-1,-1,-1,-1,-1,-1,-1,-1,-1,-1],"loss_changes":[7.217771E5,2.418588E5,1.834425E5,6.5286082E4,1.4833544E5,3.2546312E4,8.9651984E4,2.3414594E4,3.8566098E4,7.648084E4,2.4764062E4,1.3504375E4,1.4820184E4,1.7904156E4,4.9851332E4,0E0,0E0,0E0,0E0,0E0,0E0,0E0,0E0,0E0,0E0,0E0,0E0,0E0,0E0,0E0,0E0],"parents":[2147483647,0,0,1,1,2,2,3,3,4,4,5,5,6,6,7,7,8,8,9,9,10,10,11,11,12,12,13,13,14,14],"right_children":[2,4,6,8,10,12,14,16,18,20,22,24,26,28,30,-1,-1,-1,-1,-1,-1,-1,-1,-1,-1,-1,-1,-1,-1,-1,-1],"split_conditions":[1E0,8.903333E1,4E1,7.4E1,1.1386667E2,9.9E1,3.4E1,8.5E1,1.57E2,7.6E1,3.172E1,8E1,7.748E1,9.4E1,1.01E2,-2.9226354E-1,-9.7624294E-2,-2.5568888E-4,5.551936E-1,-7.492933E-3,1.9401385E-1,6.2797725E-1,3.6896464E-1,-7.874796E-1,-4.675854E-1,-3.232543E-1,7.2825587E-1,-5.61559E-1,-1.0785731E0,-2.449882E-1,1.02317944E-1],"split_indices":[7,24,14,17,24,9,9,1,17,9,3,17,3,16,17,0,0,0,0,0,0,0,0,0,0,0,0,0,0,0,0],"split_type":[0,0,0,0,0,0,0,0,0,0,0,0,0,0,0,0,0,0,0,0,0,0,0,0,0,0,0,0,0,0,0],"sum_hessian":[4.8642E4,3.8999E4,9.643E3,1.2753E4,2.6246E4,3.054E3,6.589E3,6.192E3,6.561E3,2.2256E4,3.99E3,2.897E3,1.57E2,1.006E3,5.583E3,3.216E3,2.976E3,6.233E3,3.28E2,6.765E3,1.5491E4,1.459E3,2.531E3,2.511E3,3.86E2,1.1E2,4.7E1,7.92E2,2.14E2,4.215E3,1.368E3],"tree_param":{"num_deleted":"0","num_feature":"29","num_nodes":"31","size_leaf_vector":"1"}},{"base_weights":[1.2946761E-3,1.8051306E0,-7.2698803E0,-4.2168237E-2,4.926211E0,-1.4543728E1,-4.836529E0,-1.4760939E0,3.6593375E0,3.267818E0,8.611127E0,-1.5573889E1,-4.6030445E0,-6.809232E0,1.632876E0,-1.8896244E-1,2.2330098E-2,1.0472051E-1,4.1454983E-1,1.1240683E-1,4.5107985E-1,3.301544E-1,7.0485824E-1,-7.5371677E-1,-1.4103943E0,2.9848593E-1,-8.746013E-1,-6.156878E-1,-2.4258892E-1,1.8274918E-1,-3.0649874E-1],"categories":[],"categories_nodes":[],"categories_segments":[],"categories_sizes":[],"default_left":[0,0,0,0,0,0,0,0,0,0,0,0,0,0,0,0,0,0,0,0,0,0,0,0,0,0,0,0,0,0,0],"id":26,"left_children":[1,3,5,7,9,11,13,15,17,19,21,23,25,27,29,-1,-1,-1,-1,-1,-1,-1,-1,-1,-1,-1,-1,-1,-1,-1,-1],"loss_changes":[6.353131E5,2.2376188E5,1.7034362E5,1.29412055E5,8.815416E4,2.4638625E4,9.210328E4,7.782405E4,4.9328445E4,5.8374188E4,4.9237344E4,1.33714375E4,3.1174475E4,5.952517E4,2.650378E4,0E0,0E0,0E0,0E0,0E0,0E0,0E0,0E0,0E0,0E0,0E0,0E0,0E0,0E0,0E0,0E0],"parents":[2147483647,0,0,1,1,2,2,3,3,4,4,5,5,6,6,7,7,8,8,9,9,10,10,11,11,12,12,13,13,14,14],"right_children":[2,4,6,8,10,12,14,16,18,20,22,24,26,28,30,-1,-1,-1,-1,-1,-1,-1,-1,-1,-1,-1,-1,-1,-1,-1,-1],"split_conditions":[1E0,1.05E2,3.4E1,1.1E2,1.34E2,8.3E1,9.8E1,8.1E1,1.21E2,1.12666664E2,1.29E2,8.59E1,6.835714E1,4E1,8.396667E1,-1.8896244E-1,2.2330098E-2,1.0472051E-1,4.1454983E-1,1.1240683E-1,4.5107985E-1,3.301544E-1,7.0485824E-1,-7.5371677E-1,-1.4103943E0,2.9848593E-1,-8.746013E-1,-6.156878E-1,-2.4258892E-1,1.8274918E-1,-3.0649874E-1],"split_indices":[7,14,9,17,8,14,17,9,1,24,17,24,22,14,24,0,0,0,0,0,0,0,0,0,0,0,0,0,0,0,0],"split_type":[0,0,0,0,0,0,0,0,0,0,0,0,0,0,0,0,0,0,0,0,0,0,0,0,0,0,0,0,0,0,0],"sum_hessian":[4.8436E4,3.8809E4,9.627E3,2.438E4,1.4429E4,2.412E3,7.215E3,1.7573E4,6.807E3,9.952E3,4.477E3,2.185E3,2.27E2,5.529E3,1.686E3,7.995E3,9.578E3,5.089E3,1.718E3,8.455E3,1.497E3,3.279E3,1.198E3,2.104E3,8.1E1,1.25E2,1.02E2,1.449E3,4.08E3,1.338E3,3.48E2],"tree_param":{"num_deleted":"0","num_feature":"29","num_nodes":"31","size_leaf_vector":"1"}},{"base_weights":[2.6017526E-2,-5.1307364E0,2.4913E0,-9.187242E0,-1.7362663E0,-7.4240345E-1,3.8627772E0,-1.1674697E1,-5.2288513E0,-4.5347366E0,-5.444767E-2,-3.2975464E0,1.7514505E0,3.062715E0,8.657609E0,-6.2661827E-1,-2.078049E-1,3.3647087E-3,-3.4413353E-1,-2.7257535E-1,1.765786E-1,9.3080595E-2,-1.5076363E-1,7.9316545E-1,-2.0903026E-1,1.20286226E-1,-6.857854E-1,1.0102095E-1,3.1943068E-1,1.309193E0,4.061819E-1],"categories":[],"categories_nodes":[],"categories_segments":[],"categories_sizes":[],"default_left":[0,0,0,0,0,0,0,0,0,0,0,0,0,0,0,0,0,0,0,0,0,0,0,0,0,0,0,0,0,0,0],"id":27,"left_children":[1,3,5,7,9,11,13,15,17,19,21,23,25,27,29,-1,-1,-1,-1,-1,-1,-1,-1,-1,-1,-1,-1,-1,-1,-1,-1],"loss_changes":[6.168914E5,2.1609922E5,1.4560228E5,7.034019E4,4.022167E4,6.231269E4,8.840859E4,2.8256625E4,2.4183688E4,2.3742258E4,3.0294383E4,8.179067E4,5.0115688E4,6.847961E4,3.063286E4,0E0,0E0,0E0,0E0,0E0,0E0,0E0,0E0,0E0,0E0,0E0,0E0,0E0,0E0,0E0,0E0],"parents":[2147483647,0,0,1,1,2,2,3,3,4,4,5,5,6,6,7,7,8,8,9,9,10,10,11,11,12,12,13,13,14,14],"right_children":[2,4,6,8,10,12,14,16,18,20,22,24,26,28,30,-1,-1,-1,-1,-1,-1,-1,-1,-1,-1,-1,-1,-1,-1,-1,-1],"split_conditions":[8.242857E1,5.9E1,7.5E1,6.1E1,6.2E1,2.36E2,1.1386667E2,8.9E1,4.5E1,1.25E2,8.24E1,1.659E1,1E0,1.26E2,3.9E1,-6.2661827E-1,-2.078049E-1,3.3647087E-3,-3.4413353E-1,-2.7257535E-1,1.765786E-1,9.3080595E-2,-1.5076363E-1,7.9316545E-1,-2.0903026E-1,1.20286226E-1,-6.857854E-1,1.0102095E-1,3.1943068E-1,1.309193E0,4.061819E-1],"split_indices":[23,14,9,17,17,0,24,9,18,1,6,3,7,17,11,0,0,0,0,0,0,0,0,0,0,0,0,0,0,0,0],"split_type":[0,0,0,0,0,0,0,0,0,0,0,0,0,0,0,0,0,0,0,0,0,0,0,0,0,0,0,0,0,0,0],"sum_hessian":[4.8523E4,1.5694E4,3.2829E4,7.149E3,8.545E3,9.777E3,2.3052E4,4.389E3,2.76E3,3.207E3,5.338E3,4.829E3,4.948E3,1.9757E4,3.295E3,3.939E3,4.5E2,6.57E2,2.103E3,2.88E3,3.27E2,3.241E3,2.097E3,2.12E2,4.617E3,4.748E3,2E2,1.5044E4,4.713E3,9.6E1,3.199E3],"tree_param":{"num_deleted":"0","num_feature":"29","num_nodes":"31","size_leaf_vector":"1"}},{"base_weights":[1.0407812E-2,-4.4181676E0,2.5596263E0,-8.10789E0,-1.4732065E0,8.4789133E-1,5.034983E0,-1.19602165E1,-5.5753016E0,-4.0415564E0,7.5563705E-1,2.7515253E1,6.886187E-1,4.146528E0,1.0086724E1,1.11954026E-1,-6.181853E-1,-3.3243808E-1,1.5247531E-1,-5.0346476E-1,-1.3860807E-1,1.16758935E-1,-1.2641484E-1,9.7341883E-1,3.209193E0,-5.6447834E-2,1.4592464E-1,1.3552693E-1,3.280559E-1,4.509244E-1,1.2029295E0],"categories":[],"categories_nodes":[],"categories_segments":[],"categories_sizes":[],"default_left":[0,0,0,0,0,0,0,0,0,0,0,0,0,0,0,0,0,0,0,0,0,0,0,0,0,0,0,0,0,0,0],"id":28,"left_children":[1,3,5,7,9,11,13,15,17,19,21,23,25,27,29,-1,-1,-1,-1,-1,-1,-1,-1,-1,-1,-1,-1,-1,-1,-1,-1],"loss_changes":[5.474234E5,1.9248081E5,1.303942E5,7.664753E4,5.6406055E4,7.7262125E4,5.642478E4,1.7891531E4,4.3960562E4,3.500103E4,2.7373096E4,3.0617773E4,7.331331E4,3.708608E4,2.7857438E4,0E0,0E0,0E0,0E0,0E0,0E0,0E0,0E0,0E0,0E0,0E0,0E0,0E0,0E0,0E0,0E0],"parents":[2147483647,0,0,1,1,2,2,3,3,4,4,5,5,6,6,7,7,8,8,9,9,10,10,11,11,12,12,13,13,14,14],"right_children":[2,4,6,8,10,12,14,16,18,20,22,24,26,28,30,-1,-1,-1,-1,-1,-1,-1,-1,-1,-1,-1,-1,-1,-1,-1,-1],"split_conditions":[8.471429E1,6E1,1.06E2,4.4E1,7.2E1,8.64E0,1.15933334E2,8E0,1.11E2,4.2E1,9.194E1,1.1871429E2,2.86E2,1.28E2,1.3573334E2,1.11954026E-1,-6.181853E-1,-3.3243808E-1,1.5247531E-1,-5.0346476E-1,-1.3860807E-1,1.16758935E-1,-1.2641484E-1,9.7341883E-1,3.209193E0,-5.6447834E-2,1.4592464E-1,1.3552693E-1,3.280559E-1,4.509244E-1,1.2029295E0],"split_indices":[23,14,9,9,9,6,24,18,17,17,6,23,0,8,24,0,0,0,0,0,0,0,0,0,0,0,0,0,0,0,0],"split_type":[0,0,0,0,0,0,0,0,0,0,0,0,0,0,0,0,0,0,0,0,0,0,0,0,0,0,0,0,0,0,0],"sum_hessian":[4.8488E4,1.7714E4,3.0774E4,7.862E3,9.852E3,1.8194E4,1.258E4,3.117E3,4.745E3,4.577E3,5.275E3,1.07E2,1.8087E4,1.07E4,1.88E3,8.6E1,3.031E3,4.22E3,5.25E2,7.95E2,3.782E3,3.562E3,1.713E3,8.9E1,1.8E1,9.965E3,8.122E3,6.711E3,3.989E3,1.748E3,1.32E2],"tree_param":{"num_deleted":"0","num_feature":"29","num_nodes":"31","size_leaf_vector":"1"}},{"base_weights":[-1.7858107E-1,1.4307005E0,-6.6170115E0,-1.7756697E0,2.87995E0,-1.290282E1,-4.4400063E0,-2.6710954E0,3.8832808E0,2.0626056E0,7.640025E0,-1.34071045E1,-2.4999614E0,-6.700624E0,-7.7605E-1,-2.4096762E-1,-4.46581E-2,4.7772685E-1,-1.6848668E-2,6.7622834E-3,1.8822046E-1,1.1168931E-1,5.000243E-1,-6.7525315E-1,1.7990547E0,1.3442932E-1,-1.2513632E0,-6.6491073E-1,-2.5428042E-1,2.2506064E-2,-4.6537706E-1],"categories":[],"categories_nodes":[],"categories_segments":[],"categories_sizes":[],"default_left":[0,0,0,0,0,0,0,0,0,0,0,0,0,0,0,0,0,0,0,0,0,0,0,0,0,0,0,0,0,0,0],"id":29,"left_children":[1,3,5,7,9,11,13,15,17,19,21,23,25,27,29,-1,-1,-1,-1,-1,-1,-1,-1,-1,-1,-1,-1,-1,-1,-1,-1],"loss_changes":[5.0446756E5,1.8100845E5,1.3317244E5,6.1454855E4,1.0435791E5,1.3102469E4,5.9904344E4,3.998542E4,3.9662098E4,7.510136E4,5.0142E4,1.2039094E4,1.3742712E4,4.759314E4,2.88872E4,0E0,0E0,0E0,0E0,0E0,0E0,0E0,0E0,0E0,0E0,0E0,0E0,0E0,0E0,0E0,0E0],"parents":[2147483647,0,0,1,1,2,2,3,3,4,4,5,5,6,6,7,7,8,8,9,9,10,10,11,11,12,12,13,13,14,14],"right_children":[2,4,6,8,10,12,14,16,18,20,22,24,26,28,30,-1,-1,-1,-1,-1,-1,-1,-1,-1,-1,-1,-1,-1,-1,-1,-1],"split_conditions":[1E0,7.1E1,3.5E1,1.31E2,1.45E2,9.5E1,8E1,1.92E2,5.742E1,1.06E2,9.2E1,1.057E2,9.3333336E1,3.4E1,8.57E1,-2.4096762E-1,-4.46581E-2,4.7772685E-1,-1.6848668E-2,6.7622834E-3,1.8822046E-1,1.1168931E-1,5.000243E-1,-6.7525315E-1,1.7990547E0,1.3442932E-1,-1.2513632E0,-6.6491073E-1,-2.5428042E-1,2.2506064E-2,-4.6537706E-1],"split_indices":[7,17,14,14,14,9,14,0,3,8,8,24,20,17,24,0,0,0,0,0,0,0,0,0,0,0,0,0,0,0,0],"split_type":[0,0,0,0,0,0,0,0,0,0,0,0,0,0,0,0,0,0,0,0,0,0,0,0,0,0,0,0,0,0,0],"sum_hessian":[4.8686E4,3.8951E4,9.735E3,1.2125E4,2.6826E4,2.503E3,7.232E3,1.0469E4,1.656E3,2.2896E4,3.93E3,2.387E3,1.16E2,4.472E3,2.76E3,4.74E3,5.729E3,7.06E2,9.5E2,1.0737E4,1.2159E4,1.195E3,2.735E3,2.383E3,4E0,9.5E1,2.1E1,8.78E2,3.594E3,2.414E3,3.46E2],"tree_param":{"num_deleted":"0","num_feature":"29","num_nodes":"31","size_leaf_vector":"1"}},{"base_weights":[-1.0494181E-3,-4.459488E0,2.1374052E0,-7.9868946E0,-1.4923049E0,1.0655775E0,5.627988E0,-1.143119E1,-5.7897463E0,-3.5773482E0,4.831395E-1,-6.879619E-1,3.067925E0,1.4653774E0,7.7412395E0,-3.1862155E-1,-6.2914795E-1,-6.33184E-1,-2.238626E-1,-6.3030523E-1,-1.4403194E-1,1.2685107E-1,-1.0346096E-1,-1.7400327E-1,2.8692795E-2,1.1086112E-1,4.3978795E-1,3.544567E-2,7.3022914E-1,3.1923363E-1,6.0849994E-1],"categories":[],"categories_nodes":[],"categories_segments":[],"categories_sizes":[],"default_left":[0,0,0,0,0,0,0,0,0,0,0,0,0,0,0,0,0,0,0,0,0,0,0,0,0,0,0,0,0,0,0],"id":30,"left_children":[1,3,5,7,9,11,13,15,17,19,21,23,25,27,29,-1,-1,-1,-1,-1,-1,-1,-1,-1,-1,-1,-1,-1,-1,-1,-1],"loss_changes":[4.618542E5,1.6434294E5,1.2248053E5,5.4223938E4,3.5135832E4,8.795404E4,6.764366E4,1.61933125E4,3.9477688E4,2.6068926E4,2.297152E4,4.705334E4,5.696653E4,2.5742469E4,3.0568625E4,0E0,0E0,0E0,0E0,0E0,0E0,0E0,0E0,0E0,0E0,0E0,0E0,0E0,0E0,0E0,0E0],"parents":[2147483647,0,0,1,1,2,2,3,3,4,4,5,5,6,6,7,7,8,8,9,9,10,10,11,11,12,12,13,13,14,14],"right_children":[2,4,6,8,10,12,14,16,18,20,22,24,26,28,30,-1,-1,-1,-1,-1,-1,-1,-1,-1,-1,-1,-1,-1,-1,-1,-1],"split_conditions":[8.242857E1,5.9E1,1.28E2,4.1E1,7.2E1,9.7E1,9.4E1,1E0,3.1E1,2.7E1,6.9E1,7.1E1,1.1386667E2,5.888509E1,1.4E2,-3.1862155E-1,-6.2914795E-1,-6.33184E-1,-2.238626E-1,-6.3030523E-1,-1.4403194E-1,1.2685107E-1,-1.0346096E-1,-1.7400327E-1,2.8692795E-2,1.1086112E-1,4.3978795E-1,3.544567E-2,7.3022914E-1,3.1923363E-1,6.0849994E-1],"split_indices":[23,14,14,17,9,9,8,7,9,17,15,17,24,27,17,0,0,0,0,0,0,0,0,0,0,0,0,0,0,0,0],"split_type":[0,0,0,0,0,0,0,0,0,0,0,0,0,0,0,0,0,0,0,0,0,0,0,0,0,0,0,0,0,0,0],"sum_hessian":[4.844E4,1.5702E4,3.2738E4,7.173E3,8.529E3,2.5048E4,7.69E3,2.792E3,4.381E3,4.149E3,4.38E3,1.3354E4,1.1694E4,2.59E3,5.1E3,5.19E2,2.273E3,7.01E2,3.68E3,2.96E2,3.853E3,2.427E3,1.953E3,4.156E3,9.198E3,1.0183E4,1.511E3,2.45E3,1.4E2,3.906E3,1.194E3],"tree_param":{"num_deleted":"0","num_feature":"29","num_nodes":"31","size_leaf_vector":"1"}},{"base_weights":[-3.49766E-2,-3.8256063E0,2.2532485E0,-8.14964E0,-1.212407E0,1.168908E0,5.9271073E0,-1.0095754E1,-5.2740746E0,-1.9028546E0,6.4771914E0,-5.003393E-1,3.369901E0,7.1267138E0,2.1719215E0,8.208429E-2,-5.244594E-1,-6.910728E-3,-3.1079772E-1,-1.800804E-1,-6.8910304E-3,2.2474368E-1,1.3170389E0,-6.381321E-2,2.3528099E-1,1.967843E-2,2.292953E-1,3.2048306E-1,7.660853E-1,8.148416E-2,1.3384185E0],"categories":[],"categories_nodes":[],"categories_segments":[],"categories_sizes":[],"default_left":[0,0,0,0,0,0,0,0,0,0,0,0,0,0,0,0,0,0,0,0,0,0,0,0,0,0,0,0,0,0,0],"id":31,"left_children":[1,3,5,7,9,11,13,15,17,19,21,23,25,27,29,-1,-1,-1,-1,-1,-1,-1,-1,-1,-1,-1,-1,-1,-1,-1,-1],"loss_changes":[4.2117434E5,2.065235E5,1.2061594E5,3.8476438E4,6.0506094E4,8.589985E4,3.106725E4,1.897375E4,1.3451844E4,3.1350324E4,3.6855613E4,5.3718348E4,3.6494555E4,3.0628656E4,2.2256066E4,0E0,0E0,0E0,0E0,0E0,0E0,0E0,0E0,0E0,0E0,0E0,0E0,0E0,0E0,0E0,0E0],"parents":[2147483647,0,0,1,1,2,2,3,3,4,4,5,5,6,6,7,7,8,8,9,9,10,10,11,11,12,12,13,13,14,14],"right_children":[2,4,6,8,10,12,14,16,18,20,22,24,26,28,30,-1,-1,-1,-1,-1,-1,-1,-1,-1,-1,-1,-1,-1,-1,-1,-1],"split_conditions":[7.2E1,6E1,1.26E2,6.2E1,1.0985714E2,9.7E1,9.465E1,8E0,4.3E1,8.1E1,1.79E2,1.46E2,8.6E1,1.86E2,2.46E2,8.208429E-2,-5.244594E-1,-6.910728E-3,-3.1079772E-1,-1.800804E-1,-6.8910304E-3,2.2474368E-1,1.3170389E0,-6.381321E-2,2.3528099E-1,1.967843E-2,2.292953E-1,3.2048306E-1,7.660853E-1,8.148416E-2,1.3384185E0],"split_indices":[14,9,17,17,23,9,6,9,19,17,17,14,8,14,17,0,0,0,0,0,0,0,0,0,0,0,0,0,0,0,0],"split_type":[0,0,0,0,0,0,0,0,0,0,0,0,0,0,0,0,0,0,0,0,0,0,0,0,0,0,0,0,0,0,0],"sum_hessian":[4.8555E4,1.8277E4,3.0278E4,6.884E3,1.1393E4,2.3379E4,6.899E3,4.104E3,2.78E3,1.0455E4,9.38E2,1.3296E4,1.0083E4,5.228E3,1.671E3,1.33E2,3.971E3,4.31E2,2.349E3,5.327E3,5.128E3,8.54E2,8.4E1,1.1572E4,1.724E3,2.925E3,7.158E3,4.809E3,4.19E2,1.636E3,3.5E1],"tree_param":{"num_deleted":"0","num_feature":"29","num_nodes":"31","size_leaf_vector":"1"}},{"base_weights":[9.002816E-3,1.3790439E0,-5.519874E0,3.545898E-1,5.3118205E0,-1.1249157E1,-3.516101E0,-2.178764E0,1.6055827E0,4.120532E0,9.057171E0,-1.0364212E1,-1.8871653E1,-1.0363688E1,-2.4203157E0,-2.3537607E-1,-4.030043E-2,-3.169805E-2,1.4572781E-1,1.3045393E-1,3.6754468E-1,5.972124E-1,1.5147702E-1,-5.754764E-1,-4.201332E-2,-9.664993E-1,1.326507E0,-5.999041E-1,-1.0033401E-1,-1.7583856E-1,4.7269695E-2],"categories":[],"categories_nodes":[],"categories_segments":[],"categories_sizes":[],"default_left":[0,0,0,0,0,0,0,0,0,0,0,0,0,0,0,0,0,0,0,0,0,0,0,0,0,0,0,0,0,0,0],"id":32,"left_children":[1,3,5,7,9,11,13,15,17,19,21,23,25,27,29,-1,-1,-1,-1,-1,-1,-1,-1,-1,-1,-1,-1,-1,-1,-1,-1],"loss_changes":[3.6690003E5,1.5639388E5,1.1038834E5,9.76056E4,3.5755188E4,1.6614188E4,5.3459758E4,3.533818E4,6.0440656E4,2.9705734E4,3.363714E4,2.4369562E4,5.8816094E3,1.3402375E4,2.2684219E4,0E0,0E0,0E0,0E0,0E0,0E0,0E0,0E0,0E0,0E0,0E0,0E0,0E0,0E0,0E0,0E0],"parents":[2147483647,0,0,1,1,2,2,3,3,4,4,5,5,6,6,7,7,8,8,9,9,10,10,11,11,12,12,13,13,14,14],"right_children":[2,4,6,8,10,12,14,16,18,20,22,24,26,28,30,-1,-1,-1,-1,-1,-1,-1,-1,-1,-1,-1,-1,-1,-1,-1,-1],"split_conditions":[1E0,1.28E2,3.5E1,7.1E1,1.35E2,7.7066666E1,3.1E1,1.58E2,7.9E1,1.33E2,7.988E1,7.3E1,2.16E2,7.9E1,9.7E1,-2.3537607E-1,-4.030043E-2,-3.169805E-2,1.4572781E-1,1.3045393E-1,3.6754468E-1,5.972124E-1,1.5147702E-1,-5.754764E-1,-4.201332E-2,-9.664993E-1,1.326507E0,-5.999041E-1,-1.0033401E-1,-1.7583856E-1,4.7269695E-2],"split_indices":[7,14,9,17,17,24,14,0,1,8,3,14,16,9,9,0,0,0,0,0,0,0,0,0,0,0,0,0,0,0,0],"split_type":[0,0,0,0,0,0,0,0,0,0,0,0,0,0,0,0,0,0,0,0,0,0,0,0,0,0,0,0,0,0,0],"sum_hessian":[4.8435E4,3.8817E4,9.618E3,3.0796E4,8.021E3,2.491E3,7.127E3,1.018E4,2.0616E4,6.087E3,1.934E3,2.234E3,2.57E2,9.82E2,6.145E3,3.581E3,6.599E3,7.605E3,1.3011E4,4.148E3,1.939E3,1.307E3,6.27E2,1.994E3,2.4E2,2.55E2,2E0,8.21E2,1.61E2,4.635E3,1.51E3],"tree_param":{"num_deleted":"0","num_feature":"29","num_nodes":"31","size_leaf_vector":"1"}},{"base_weights":[1.0936978E-2,-3.4071906E0,2.0911863E0,-1.3824621E0,-7.6856146E0,5.010098E-1,4.392422E0,-3.7967784E0,5.111952E-1,-9.179443E0,-2.9651744E0,-2.9863021E0,1.6605467E0,1.4167224E0,6.016201E0,-7.422163E-2,-3.689843E-1,-1.7770018E-2,2.7207968E-1,-6.587462E-1,-3.9902273E-1,-2.4536347E-1,1.2104001E-1,-1.07770614E-1,-5.310497E-1,3.1924494E-2,2.0707002E-1,7.571757E-1,5.1713943E-2,2.076764E-1,4.2335096E-1],"categories":[],"categories_nodes":[],"categories_segments":[],"categories_sizes":[],"default_left":[0,0,0,0,0,0,0,0,0,0,0,0,0,0,0,0,0,0,0,0,0,0,0,0,0,0,0,0,0,0,0],"id":33,"left_children":[1,3,5,7,9,11,13,15,17,19,21,23,25,27,29,-1,-1,-1,-1,-1,-1,-1,-1,-1,-1,-1,-1,-1,-1,-1,-1],"loss_changes":[3.4526738E5,1.5913084E5,1.1045956E5,5.701796E4,4.1583844E4,7.219249E4,5.9592688E4,4.5406984E4,2.9867834E4,2.1366062E4,1.4865185E4,2.8237793E4,3.3968973E4,2.285213E4,3.6394125E4,0E0,0E0,0E0,0E0,0E0,0E0,0E0,0E0,0E0,0E0,0E0,0E0,0E0,0E0,0E0,0E0],"parents":[2147483647,0,0,1,1,2,2,3,3,4,4,5,5,6,6,7,7,8,8,9,9,10,10,11,11,12,12,13,13,14,14],"right_children":[2,4,6,8,10,12,14,16,18,20,22,24,26,28,30,-1,-1,-1,-1,-1,-1,-1,-1,-1,-1,-1,-1,-1,-1,-1,-1],"split_conditions":[7.2E1,1E0,1.02E2,1.91E2,7.3E1,6.4E1,9.2E1,8.549E1,1.32E2,2.5E1,1.5E1,1.2768E2,1.21E2,1.174E1,1.0453333E2,-7.422163E-2,-3.689843E-1,-1.7770018E-2,2.7207968E-1,-6.587462E-1,-3.9902273E-1,-2.4536347E-1,1.2104001E-1,-1.07770614E-1,-5.310497E-1,3.1924494E-2,2.0707002E-1,7.571757E-1,5.1713943E-2,2.076764E-1,4.2335096E-1],"split_indices":[17,7,14,0,14,9,8,6,14,9,4,6,9,3,24,0,0,0,0,0,0,0,0,0,0,0,0,0,0,0,0],"split_type":[0,0,0,0,0,0,0,0,0,0,0,0,0,0,0,0,0,0,0,0,0,0,0,0,0,0,0,0,0,0,0],"sum_hessian":[4.8555E4,1.837E4,3.0185E4,1.247E4,5.9E3,1.7851E4,1.2334E4,5.481E3,6.989E3,4.481E3,1.419E3,4.454E3,1.3397E4,4.355E3,7.979E3,3.332E3,2.149E3,5.945E3,1.044E3,1.032E3,3.449E3,1.043E3,3.76E2,4.018E3,4.36E2,9.489E3,3.908E3,1.17E2,4.238E3,4.535E3,3.444E3],"tree_param":{"num_deleted":"0","num_feature":"29","num_nodes":"31","size_leaf_vector":"1"}},{"base_weights":[-9.8487616E-2,-3.51863E0,2.0296094E0,-7.267072E0,-9.941761E-1,1.0854124E0,5.235167E0,-8.481035E0,-2.2207384E0,-2.70636E0,2.647143E0,-8.9292324E-1,2.2986493E0,3.821893E0,7.886727E0,-2.9276535E-1,-5.012122E-1,-1.4739954E0,-7.9306684E-2,-1.5620643E-1,2.587921E-1,4.6731874E-2,4.1890392E-1,-1.6393459E-1,9.696494E-3,9.534822E-2,4.448155E-1,-1.0060861E-1,2.3418234E-1,3.208249E-1,8.561961E-1],"categories":[],"categories_nodes":[],"categories_segments":[],"categories_sizes":[],"default_left":[0,0,0,0,0,0,0,0,0,0,0,0,0,0,0,0,0,0,0,0,0,0,0,0,0,0,0,0,0,0,0],"id":34,"left_children":[1,3,5,7,9,11,13,15,17,19,21,23,25,27,29,-1,-1,-1,-1,-1,-1,-1,-1,-1,-1,-1,-1,-1,-1,-1,-1],"loss_changes":[3.5298747E5,1.760192E5,9.047988E4,4.5840875E4,6.9317305E4,5.5434438E4,2.5459531E4,2.4391344E4,2.5088398E4,2.491734E4,3.489167E4,2.2767E4,3.69785E4,2.2326621E4,3.199514E4,0E0,0E0,0E0,0E0,0E0,0E0,0E0,0E0,0E0,0E0,0E0,0E0,0E0,0E0,0E0,0E0],"parents":[2147483647,0,0,1,1,2,2,3,3,4,4,5,5,6,6,7,7,8,8,9,9,10,10,11,11,12,12,13,13,14,14],"right_children":[2,4,6,8,10,12,14,16,18,20,22,24,26,28,30,-1,-1,-1,-1,-1,-1,-1,-1,-1,-1,-1,-1,-1,-1,-1,-1],"split_conditions":[7.3E1,6.2E1,1.26E2,9.3E1,1.04E2,8.853333E1,1E0,1E0,8E0,1.59E2,1E0,6.2E1,5.769449E1,7.4666664E1,1.45E2,-2.9276535E-1,-5.012122E-1,-1.4739954E0,-7.9306684E-2,-1.5620643E-1,2.587921E-1,4.6731874E-2,4.1890392E-1,-1.6393459E-1,9.696494E-3,9.534822E-2,4.448155E-1,-1.0060861E-1,2.3418234E-1,3.208249E-1,8.561961E-1],"split_indices":[9,17,17,14,14,24,5,7,16,17,5,14,27,20,12,0,0,0,0,0,0,0,0,0,0,0,0,0,0,0,0],"split_type":[0,0,0,0,0,0,0,0,0,0,0,0,0,0,0,0,0,0,0,0,0,0,0,0,0,0,0,0,0,0,0],"sum_hessian":[4.8496E4,1.8601E4,2.9895E4,7.485E3,1.1116E4,2.3094E4,6.801E3,6.033E3,1.452E3,7.561E3,3.555E3,8.779E3,1.4315E4,4.438E3,2.363E3,2.235E3,3.798E3,3.2E1,1.42E3,7.181E3,3.8E2,2.738E3,8.17E2,2.747E3,6.032E3,1.3514E4,8.01E2,5.71E2,3.867E3,2.04E3,3.23E2],"tree_param":{"num_deleted":"0","num_feature":"29","num_nodes":"31","size_leaf_vector":"1"}},{"base_weights":[5.041042E-2,-3.4258995E0,2.0349267E0,-5.550578E0,-6.5142685E-1,1.2170836E0,6.054542E0,-8.40254E0,-3.6241064E0,1.9103925E0,-2.3643792E0,-8.7778807E-1,2.5005107E0,3.5339384E0,8.145563E0,-4.6195427E-1,-2.1067682E-1,-4.755509E-1,-1.3358396E-1,2.7907832E-2,3.954076E-1,9.354014E-1,-1.3499843E-1,-9.6213825E-2,2.061965E-1,1.1501855E-2,1.8627079E-1,9.073272E-1,1.3835202E-1,2.9848287E-1,5.999438E-1],"categories":[],"categories_nodes":[],"categories_segments":[],"categories_sizes":[],"default_left":[0,0,0,0,0,0,0,0,0,0,0,0,0,0,0,0,0,0,0,0,0,0,0,0,0,0,0,0,0,0,0],"id":35,"left_children":[1,3,5,7,9,11,13,15,17,19,21,23,25,27,29,-1,-1,-1,-1,-1,-1,-1,-1,-1,-1,-1,-1,-1,-1,-1,-1],"loss_changes":[3.3481234E5,1.0396408E5,1.015573E5,5.4845844E4,3.3574816E4,6.902701E4,2.749975E4,1.4069375E4,3.340825E4,2.4862027E4,3.247411E4,5.1062715E4,4.4274484E4,2.6508902E4,2.3857594E4,0E0,0E0,0E0,0E0,0E0,0E0,0E0,0E0,0E0,0E0,0E0,0E0,0E0,0E0,0E0,0E0],"parents":[2147483647,0,0,1,1,2,2,3,3,4,4,5,5,6,6,7,7,8,8,9,9,10,10,11,11,12,12,13,13,14,14],"right_children":[2,4,6,8,10,12,14,16,18,20,22,24,26,28,30,-1,-1,-1,-1,-1,-1,-1,-1,-1,-1,-1,-1,-1,-1,-1,-1],"split_conditions":[8.457143E1,7.2E1,1.41E2,4.8E1,6E1,8.3E1,9E1,7.4833336E1,3.4E1,1.26E2,1.1E1,1.3E2,1.88E2,3.9E1,1.24E2,-4.6195427E-1,-2.1067682E-1,-4.755509E-1,-1.3358396E-1,2.7907832E-2,3.954076E-1,9.354014E-1,-1.3499843E-1,-9.6213825E-2,2.061965E-1,1.1501855E-2,1.8627079E-1,9.073272E-1,1.3835202E-1,2.9848287E-1,5.999438E-1],"split_indices":[23,9,17,17,18,14,1,24,14,9,19,9,0,16,14,0,0,0,0,0,0,0,0,0,0,0,0,0,0,0,0],"split_type":[0,0,0,0,0,0,0,0,0,0,0,0,0,0,0,0,0,0,0,0,0,0,0,0,0,0,0,0,0,0,0],"sum_hessian":[4.853E4,1.7636E4,3.0894E4,9.987E3,7.649E3,2.5672E4,5.222E3,4.025E3,5.962E3,3.065E3,4.584E3,9.753E3,1.5919E4,2.369E3,2.853E3,3.354E3,6.71E2,8.29E2,5.133E3,2.502E3,5.63E2,7.1E1,4.513E3,8.066E3,1.687E3,5.579E3,1.034E4,1.17E2,2.252E3,1.825E3,1.028E3],"tree_param":{"num_deleted":"0","num_feature":"29","num_nodes":"31","size_leaf_vector":"1"}},{"base_weights":[-6.945704E-2,-3.0951426E0,1.8936151E0,-6.5456305E0,-1.0764825E0,6.9520617E-1,4.33141E0,-4.0129194E0,-8.243538E0,-1.8372493E0,3.1594105E0,-1.2575587E0,2.2696598E0,3.1292362E0,7.927758E0,8.6359894E-1,-2.1966016E-1,-4.5505533E-1,-5.823235E-2,-1.15905285E-1,2.4308343E-1,3.121023E-1,-3.8219225E-2,-1.1370864E-1,7.530104E-2,-5.2313287E-2,1.7493938E-1,1.03885114E-1,3.6081007E-1,4.7853646E-1,6.747591E-3],"categories":[],"categories_nodes":[],"categories_segments":[],"categories_sizes":[],"default_left":[0,0,0,0,0,0,0,0,0,0,0,0,0,0,0,0,0,0,0,0,0,0,0,0,0,0,0,0,0,0,0],"id":36,"left_children":[1,3,5,7,9,11,13,15,17,19,21,23,25,27,29,-1,-1,-1,-1,-1,-1,-1,-1,-1,-1,-1,-1,-1,-1,-1,-1],"loss_changes":[2.8889212E5,1.3330302E5,8.617758E4,3.0344312E4,3.892104E4,6.0811062E4,4.2007625E4,2.3039426E4,2.5656E4,3.299009E4,2.2248635E4,2.4808445E4,4.463252E4,3.1305797E4,3.117486E4,0E0,0E0,0E0,0E0,0E0,0E0,0E0,0E0,0E0,0E0,0E0,0E0,0E0,0E0,0E0,0E0],"parents":[2147483647,0,0,1,1,2,2,3,3,4,4,5,5,6,6,7,7,8,8,9,9,10,10,11,11,12,12,13,13,14,14],"right_children":[2,4,6,8,10,12,14,16,18,20,22,24,26,28,30,-1,-1,-1,-1,-1,-1,-1,-1,-1,-1,-1,-1,-1,-1,-1,-1],"split_conditions":[7.4E1,6E1,1E0,1E0,1.33E2,3.8891613E1,1.21E2,8E0,9.2E1,1.48E2,9.4E1,1.01E2,7.2E1,1.37E2,1.7E2,8.6359894E-1,-2.1966016E-1,-4.5505533E-1,-5.823235E-2,-1.15905285E-1,2.4308343E-1,3.121023E-1,-3.8219225E-2,-1.1370864E-1,7.530104E-2,-5.2313287E-2,1.7493938E-1,1.03885114E-1,3.6081007E-1,4.7853646E-1,6.747591E-3],"split_indices":[14,9,5,7,9,27,17,11,17,17,15,1,17,14,9,0,0,0,0,0,0,0,0,0,0,0,0,0,0,0,0],"split_type":[0,0,0,0,0,0,0,0,0,0,0,0,0,0,0,0,0,0,0,0,0,0,0,0,0,0,0,0,0,0,0],"sum_hessian":[4.8636E4,1.9138E4,2.9498E4,7.063E3,1.2075E4,1.9777E4,9.721E3,2.836E3,4.227E3,1.0237E4,1.838E3,8.828E3,1.0949E4,7.287E3,2.434E3,4.9E1,2.787E3,3.77E3,4.57E2,9.552E3,6.85E2,1.029E3,8.09E2,6.454E3,2.374E3,2.961E3,7.988E3,5.797E3,1.49E3,2.01E3,4.24E2],"tree_param":{"num_deleted":"0","num_feature":"29","num_nodes":"31","size_leaf_vector":"1"}},{"base_weights":[5.053621E-2,-2.9098501E0,1.8873289E0,-6.1011624E0,-7.8756285E-1,1.3359132E0,6.2995763E0,-8.942991E0,-4.6103096E0,-2.1505363E0,2.424287E0,5.777933E-1,4.155036E0,8.056271E0,1.7276499E0,6.0584366E-2,-4.7084785E-1,-2.5366798E-1,2.781822E-1,-1.1832547E-1,6.539707E-1,4.053561E-2,3.8183308E-1,-5.7605274E-2,8.926203E-2,2.804861E-1,5.417179E-2,6.654495E-1,3.3471555E-1,-1.8943693E-2,5.488256E-1],"categories":[],"categories_nodes":[],"categories_segments":[],"categories_sizes":[],"default_left":[0,0,0,0,0,0,0,0,0,0,0,0,0,0,0,0,0,0,0,0,0,0,0,0,0,0,0,0,0,0,0],"id":37,"left_children":[1,3,5,7,9,11,13,15,17,19,21,23,25,27,29,-1,-1,-1,-1,-1,-1,-1,-1,-1,-1,-1,-1,-1,-1,-1,-1],"loss_changes":[2.645455E5,1.2616042E5,7.3037016E4,3.1480188E4,4.898692E4,5.7038207E4,2.6771047E4,1.2327797E4,2.3027531E4,2.5871379E4,2.8034605E4,4.3937066E4,2.526614E4,1.7144875E4,1.8064852E4,0E0,0E0,0E0,0E0,0E0,0E0,0E0,0E0,0E0,0E0,0E0,0E0,0E0,0E0,0E0,0E0],"parents":[2147483647,0,0,1,1,2,2,3,3,4,4,5,5,6,6,7,7,8,8,9,9,10,10,11,11,12,12,13,13,14,14],"right_children":[2,4,6,8,10,12,14,16,18,20,22,24,26,28,30,-1,-1,-1,-1,-1,-1,-1,-1,-1,-1,-1,-1,-1,-1,-1,-1],"split_conditions":[7.3E1,6.2E1,1.1386667E2,4E1,1.06E2,1.35E2,1.47E2,8E0,1.61E2,1.95E2,1E0,7.9E1,1.28E2,1.0657143E2,2.16E2,6.0584366E-2,-4.7084785E-1,-2.5366798E-1,2.781822E-1,-1.1832547E-1,6.539707E-1,4.053561E-2,3.8183308E-1,-5.7605274E-2,8.926203E-2,2.804861E-1,5.417179E-2,6.654495E-1,3.3471555E-1,-1.8943693E-2,5.488256E-1],"split_indices":[9,17,24,14,14,9,18,19,1,17,5,14,20,21,18,0,0,0,0,0,0,0,0,0,0,0,0,0,0,0,0],"split_type":[0,0,0,0,0,0,0,0,0,0,0,0,0,0,0,0,0,0,0,0,0,0,0,0,0,0,0,0,0,0,0],"sum_hessian":[4.8649E4,1.8627E4,3.0022E4,7.439E3,1.1188E4,2.6688E4,3.334E3,2.558E3,4.881E3,7.855E3,3.333E3,2.1033E4,5.655E3,2.408E3,9.26E2,1.14E2,2.444E3,4.669E3,2.12E2,7.746E3,1.09E2,2.546E3,7.87E2,8.646E3,1.2387E4,3.837E3,1.818E3,4.94E2,1.914E3,7.55E2,1.71E2],"tree_param":{"num_deleted":"0","num_feature":"29","num_nodes":"31","size_leaf_vector":"1"}},{"base_weights":[-5.5717997E-2,1.0189896E0,-4.353879E0,-6.584747E-2,3.5477414E0,-5.5698133E0,1.731481E0,5.6640825E0,-4.8062524E-1,2.6970365E0,8.191465E0,-1.0180763E1,-4.1965623E0,5.8139114E0,-2.2980385E0,1.5844198E-1,6.0402495E-1,-4.6094973E-2,1.9177964E-1,1.132521E0,1.2390269E-1,2.9134467E-1,5.9612715E-1,-4.2967567E-1,-7.580355E-1,-5.144964E-1,-1.6284804E-1,4.0374014E-1,-1.7113157E-1,-3.2646856E-1,1.5265839E-1],"categories":[],"categories_nodes":[],"categories_segments":[],"categories_sizes":[],"default_left":[0,0,0,0,0,0,0,0,0,0,0,0,0,0,0,0,0,0,0,0,0,0,0,0,0,0,0,0,0,0,0],"id":38,"left_children":[1,3,5,7,9,11,13,15,17,19,21,23,25,27,29,-1,-1,-1,-1,-1,-1,-1,-1,-1,-1,-1,-1,-1,-1,-1,-1],"loss_changes":[2.2453772E5,1.0667556E5,7.195397E4,6.4678438E4,4.6095344E4,5.1271734E4,2.6662736E4,2.937304E4,4.8337477E4,4.3061562E4,1.5872617E4,1.4564031E4,3.572693E4,1.6838305E4,1.8496402E4,0E0,0E0,0E0,0E0,0E0,0E0,0E0,0E0,0E0,0E0,0E0,0E0,0E0,0E0,0E0,0E0],"parents":[2147483647,0,0,1,1,2,2,3,3,4,4,5,5,6,6,7,7,8,8,9,9,10,10,11,11,12,12,13,13,14,14],"right_children":[2,4,6,8,10,12,14,16,18,20,22,24,26,28,30,-1,-1,-1,-1,-1,-1,-1,-1,-1,-1,-1,-1,-1,-1,-1,-1],"split_conditions":[1E0,1.0246667E2,9.7E1,1.941E1,1.61E2,3E1,5.5E1,1.1E2,1.41E2,8.64E0,5.2321243E1,6.6833336E1,2.8E1,9.4E1,6.727E1,1.5844198E-1,6.0402495E-1,-4.6094973E-2,1.9177964E-1,1.132521E0,1.2390269E-1,2.9134467E-1,5.9612715E-1,-4.2967567E-1,-7.580355E-1,-5.144964E-1,-1.6284804E-1,4.0374014E-1,-1.7113157E-1,-3.2646856E-1,1.5265839E-1],"split_indices":[7,24,9,3,14,14,10,2,17,6,27,24,17,18,6,0,0,0,0,0,0,0,0,0,0,0,0,0,0,0,0],"split_type":[0,0,0,0,0,0,0,0,0,0,0,0,0,0,0,0,0,0,0,0,0,0,0,0,0,0,0,0,0,0,0],"sum_hessian":[4.8607E4,3.8885E4,9.722E3,2.7212E4,1.1673E4,8.103E3,1.619E3,1.836E3,2.5376E4,9.867E3,1.806E3,1.858E3,6.245E3,8.04E2,8.15E2,1.323E3,5.13E2,2.3023E4,2.353E3,1.06E2,9.761E3,1.107E3,6.99E2,1.411E3,4.47E2,8.33E2,5.412E3,6.46E2,1.58E2,4.55E2,3.6E2],"tree_param":{"num_deleted":"0","num_feature":"29","num_nodes":"31","size_leaf_vector":"1"}},{"base_weights":[-2.825114E-2,-2.61691E0,1.5884709E0,-5.421438E0,-7.333485E-1,7.741749E-1,4.3246107E0,-6.4719E0,-8.948235E-1,-1.2185783E0,8.674188E0,4.0451083E-1,5.178214E0,3.9419036E0,1.2103583E1,-3.4101823E-1,2.6360512E-1,-1.3930174E0,-1.649821E-2,-8.184728E-2,2.9621E-1,2.861576E-1,1.1000184E0,-3.6228742E-2,1.0774588E-1,3.922636E-1,-5.0661672E-2,9.3583536E-1,1.8651937E-1,2.0877438E0,4.7834656E-1],"categories":[],"categories_nodes":[],"categories_segments":[],"categories_sizes":[],"default_left":[0,0,0,0,0,0,0,0,0,0,0,0,0,0,0,0,0,0,0,0,0,0,0,0,0,0,0,0,0,0,0],"id":39,"left_children":[1,3,5,7,9,11,13,15,17,19,21,23,25,27,29,-1,-1,-1,-1,-1,-1,-1,-1,-1,-1,-1,-1,-1,-1,-1,-1],"loss_changes":[2.032472E5,9.86203E4,6.660131E4,3.566175E4,5.099958E4,3.7505746E4,2.0363086E4,2.4950328E4,2.152847E4,3.175446E4,2.1424758E4,4.2011047E4,2.9467047E4,2.035593E4,2.3744555E4,0E0,0E0,0E0,0E0,0E0,0E0,0E0,0E0,0E0,0E0,0E0,0E0,0E0,0E0,0E0,0E0],"parents":[2147483647,0,0,1,1,2,2,3,3,4,4,5,5,6,6,7,7,8,8,9,9,10,10,11,11,12,12,13,13,14,14],"right_children":[2,4,6,8,10,12,14,16,18,20,22,24,26,28,30,-1,-1,-1,-1,-1,-1,-1,-1,-1,-1,-1,-1,-1,-1,-1,-1],"split_conditions":[7.3E1,6.2E1,1.26E2,9.4E1,1.7E2,1.1436667E2,2.01E2,1.61E2,8E0,1.61E2,1.5E1,9.9E1,1.46E2,8.54E0,4.3E1,-3.4101823E-1,2.6360512E-1,-1.3930174E0,-1.649821E-2,-8.184728E-2,2.9621E-1,2.861576E-1,1.1000184E0,-3.6228742E-2,1.0774588E-1,3.922636E-1,-5.0661672E-2,9.3583536E-1,1.8651937E-1,2.0877438E0,4.7834656E-1],"split_indices":[9,17,17,14,14,24,8,1,16,17,4,1,18,3,12,0,0,0,0,0,0,0,0,0,0,0,0,0,0,0,0],"split_type":[0,0,0,0,0,0,0,0,0,0,0,0,0,0,0,0,0,0,0,0,0,0,0,0,0,0,0,0,0,0,0],"sum_hessian":[4.8562E4,1.8669E4,2.9893E4,7.5E3,1.1169E4,2.3038E4,6.855E3,6.087E3,1.413E3,1.0622E4,5.47E2,2.1255E4,1.783E3,6.535E3,3.2E2,5.912E3,1.75E2,2.8E1,1.385E3,1.0035E4,5.87E2,4.49E2,9.8E1,1.2921E4,8.334E3,1.246E3,5.37E2,9.1E1,6.444E3,2.4E1,2.96E2],"tree_param":{"num_deleted":"0","num_feature":"29","num_nodes":"31","size_leaf_vector":"1"}},{"base_weights":[1.3852683E-1,-2.6059825E0,1.7890936E0,-5.7235227E0,-6.9982606E-1,3.4677514E-1,3.4975576E0,-5.979781E0,2.759818E0,-1.8343318E0,2.4871585E0,-3.4432316E0,1.271434E0,2.3546133E0,5.3504667E0,-4.5050684E-1,-2.6356718E-1,1.8165483E0,-7.4892685E-2,-1.4583625E-1,7.593494E-2,8.1132966E-1,7.248014E-2,-7.5354064E-1,-1.3883473E-1,8.375829E-3,2.2342621E-1,3.959839E-2,2.0691763E-1,2.7653566E-1,-9.5669186E-1],"categories":[],"categories_nodes":[],"categories_segments":[],"categories_sizes":[],"default_left":[0,0,0,0,0,0,0,0,0,0,0,0,0,0,0,0,0,0,0,0,0,0,0,0,0,0,0,0,0,0,0],"id":40,"left_children":[1,3,5,7,9,11,13,15,17,19,21,23,25,27,29,-1,-1,-1,-1,-1,-1,-1,-1,-1,-1,-1,-1,-1,-1,-1,-1],"loss_changes":[2.204388E5,1.0859553E5,7.487689E4,1.5090531E4,4.101329E4,5.7750918E4,2.944561E4,1.4402719E4,2.9213143E4,3.0363498E4,4.2429145E4,2.500684E4,4.6752203E4,2.3981898E4,2.3522281E4,0E0,0E0,0E0,0E0,0E0,0E0,0E0,0E0,0E0,0E0,0E0,0E0,0E0,0E0,0E0,0E0],"parents":[2147483647,0,0,1,1,2,2,3,3,4,4,5,5,6,6,7,7,8,8,9,9,10,10,11,11,12,12,13,13,14,14],"right_children":[2,4,6,8,10,12,14,16,18,20,22,24,26,28,30,-1,-1,-1,-1,-1,-1,-1,-1,-1,-1,-1,-1,-1,-1,-1,-1],"split_conditions":[7.2E1,6E1,9.7E1,5.839878E1,4.4418835E1,5.7E1,1.07E2,2.4E1,8E0,1.12E2,8E0,2.2E1,1E0,4.138828E1,1.7231E2,-4.5050684E-1,-2.6356718E-1,1.8165483E0,-7.4892685E-2,-1.4583625E-1,7.593494E-2,8.1132966E-1,7.248014E-2,-7.5354064E-1,-1.3883473E-1,8.375829E-3,2.2342621E-1,3.959839E-2,2.0691763E-1,2.7653566E-1,-9.5669186E-1],"split_indices":[14,9,9,26,26,17,1,9,9,1,14,16,5,27,6,0,0,0,0,0,0,0,0,0,0,0,0,0,0,0,0],"split_type":[0,0,0,0,0,0,0,0,0,0,0,0,0,0,0,0,0,0,0,0,0,0,0,0,0,0,0,0,0,0,0],"sum_hessian":[4.866E4,1.8274E4,3.0386E4,6.933E3,1.1341E4,1.6477E4,1.3909E4,6.73E3,2.03E2,8.364E3,2.977E3,3.231E3,1.3246E4,8.604E3,5.305E3,1.273E3,5.457E3,2.2E1,1.81E2,6.323E3,2.041E3,2.08E2,2.769E3,1.74E2,3.057E3,9.847E3,3.399E3,4.587E3,4.017E3,5.267E3,3.8E1],"tree_param":{"num_deleted":"0","num_feature":"29","num_nodes":"31","size_leaf_vector":"1"}},{"base_weights":[8.682895E-2,-2.383242E0,1.5619724E0,-5.2423944E0,-6.4077866E-1,3.268923E-1,3.1165166E0,4.9172087E0,-5.522985E0,-1.0194939E0,7.02923E0,1.5201858E-1,1.366986E1,2.0145519E0,5.382568E0,-8.9332685E-2,1.2114018E0,-4.061245E-1,-2.0264828E-1,-1.4109035E-1,1.7081896E-2,7.4678534E-1,7.973682E-2,-2.9371763E-2,1.2714033E-1,1.01022E0,6.359438E-2,9.4271755E-1,8.216732E-2,1.6694043E0,2.5853628E-1],"categories":[],"categories_nodes":[],"categories_segments":[],"categories_sizes":[],"default_left":[0,0,0,0,0,0,0,0,0,0,0,0,0,0,0,0,0,0,0,0,0,0,0,0,0,0,0,0,0,0,0],"id":41,"left_children":[1,3,5,7,9,11,13,15,17,19,21,23,25,27,29,-1,-1,-1,-1,-1,-1,-1,-1,-1,-1,-1,-1,-1,-1,-1,-1],"loss_changes":[1.7760173E5,9.079302E4,5.859121E4,1.9699719E4,3.2903453E4,3.9680938E4,3.3727594E4,2.4122312E4,2.5631094E4,2.6478191E4,2.2877957E4,2.9680615E4,1.7797613E4,5.6803336E4,2.6050148E4,0E0,0E0,0E0,0E0,0E0,0E0,0E0,0E0,0E0,0E0,0E0,0E0,0E0,0E0,0E0,0E0],"parents":[2147483647,0,0,1,1,2,2,3,3,4,4,5,5,6,6,7,7,8,8,9,9,10,10,11,11,12,12,13,13,14,14],"right_children":[2,4,6,8,10,12,14,16,18,20,22,24,26,28,30,-1,-1,-1,-1,-1,-1,-1,-1,-1,-1,-1,-1,-1,-1,-1,-1],"split_conditions":[7.2E1,6E1,9.8E1,8E0,5.56527E1,1.2838095E2,1E0,4.964777E1,3.4E1,7.5E1,9.1E1,1.29E2,6.291188E1,1.115E1,8E0,-8.9332685E-2,1.2114018E0,-4.061245E-1,-2.0264828E-1,-1.4109035E-1,1.7081896E-2,7.4678534E-1,7.973682E-2,-2.9371763E-2,1.2714033E-1,1.01022E0,6.359438E-2,9.4271755E-1,8.216732E-2,1.6694043E0,2.5853628E-1],"split_indices":[14,9,17,9,27,23,5,26,9,17,1,14,25,3,9,0,0,0,0,0,0,0,0,0,0,0,0,0,0,0,0],"split_type":[0,0,0,0,0,0,0,0,0,0,0,0,0,0,0,0,0,0,0,0,0,0,0,0,0,0,0,0,0,0,0],"sum_hessian":[4.874E4,1.8224E4,3.0516E4,6.9E3,1.1324E4,1.7006E4,1.351E4,1.85E2,6.715E3,1.0792E4,5.32E2,1.6787E4,2.19E2,9.091E3,4.419E3,1.38E2,4.7E1,2.424E3,4.291E3,4.643E3,6.149E3,2.16E2,3.16E2,1.2822E4,3.965E3,1.43E2,7.6E1,1.95E2,8.896E3,3.2E1,4.387E3],"tree_param":{"num_deleted":"0","num_feature":"29","num_nodes":"31","size_leaf_vector":"1"}},{"base_weights":[1.0594624E-2,-2.3425052E0,1.7170994E0,-4.472161E0,-7.442868E-1,1.9571031E0,-9.050682E0,-6.850045E0,-3.3330739E0,-1.2532346E0,4.8496733E0,1.4482065E0,6.351482E0,-1.064281E1,1.2885991E1,2.0759705E-1,-3.8367677E-1,-2.3533808E-1,-4.6721097E-2,1.3247683E-2,-1.3011378E-1,1.1046365E0,1.8056683E-1,4.9029853E-2,2.6219988E-1,2.1131639E-1,5.629656E-1,-1.103193E0,-4.1200086E-1,1.3401859E0,-8.432007E-1],"categories":[],"categories_nodes":[],"categories_segments":[],"categories_sizes":[],"default_left":[0,0,0,0,0,0,0,0,0,0,0,0,0,0,0,0,0,0,0,0,0,0,0,0,0,0,0,0,0,0,0],"id":42,"left_children":[1,3,5,7,9,11,13,15,17,19,21,23,25,27,29,-1,-1,-1,-1,-1,-1,-1,-1,-1,-1,-1,-1,-1,-1,-1,-1],"loss_changes":[1.9503655E5,6.9489086E4,7.277371E4,2.3685703E4,3.3216727E4,6.1578062E4,2.1581707E4,2.5707969E4,1.9501992E4,2.1901002E4,2.0696408E4,4.3805906E4,2.9761055E4,1.5542707E4,1.7842219E4,0E0,0E0,0E0,0E0,0E0,0E0,0E0,0E0,0E0,0E0,0E0,0E0,0E0,0E0,0E0,0E0],"parents":[2147483647,0,0,1,1,2,2,3,3,4,4,5,5,6,6,7,7,8,8,9,9,10,10,11,11,12,12,13,13,14,14],"right_children":[2,4,6,8,10,12,14,16,18,20,22,24,26,28,30,-1,-1,-1,-1,-1,-1,-1,-1,-1,-1,-1,-1,-1,-1,-1,-1],"split_conditions":[8.786667E1,6.1E1,1E0,4E1,1.4E2,1.61E2,1.4E2,8E0,1.02E2,6.771E1,6.0266666E1,1.56E2,5.2030594E1,3.4E1,4.793895E1,2.0759705E-1,-3.8367677E-1,-2.3533808E-1,-4.6721097E-2,1.3247683E-2,-1.3011378E-1,1.1046365E0,1.8056683E-1,4.9029853E-2,2.6219988E-1,2.1131639E-1,5.629656E-1,-1.103193E0,-4.1200086E-1,1.3401859E0,-8.432007E-1],"split_indices":[24,17,7,14,17,14,9,14,8,6,24,17,27,9,25,0,0,0,0,0,0,0,0,0,0,0,0,0,0,0,0],"split_type":[0,0,0,0,0,0,0,0,0,0,0,0,0,0,0,0,0,0,0,0,0,0,0,0,0,0,0,0,0,0,0],"sum_hessian":[4.8568E4,2.0416E4,2.8152E4,8.752E3,1.1664E4,2.7539E4,6.13E2,2.833E3,5.919E3,1.0692E4,9.72E2,2.4682E4,2.857E3,5.72E2,4.1E1,1.97E2,2.636E3,3.763E3,2.156E3,5.031E3,5.661E3,6.4E1,9.08E2,2.1976E4,2.706E3,1.995E3,8.62E2,9.8E1,4.74E2,2.8E1,1.3E1],"tree_param":{"num_deleted":"0","num_feature":"29","num_nodes":"31","size_leaf_vector":"1"}},{"base_weights":[1.1064326E-1,-2.2622306E0,1.5379411E0,-6.121067E0,-1.164893E0,3.032061E-1,3.0877528E0,2.7196016E0,-6.547773E0,2.8177637E-1,-2.7034886E0,-5.592998E-1,2.4494452E0,2.1123478E0,5.63003E0,-1.8772831E-3,1.7168697E0,-3.3429292E-1,9.506938E-1,-5.3096797E-2,1.9978139E-1,-1.3858797E-1,2.2292411E0,-3.5012607E-2,7.382369E-1,2.9243264E-1,2.892231E-2,5.3412702E-2,2.5220656E-1,5.7997364E-1,2.3152836E-1],"categories":[],"categories_nodes":[],"categories_segments":[],"categories_sizes":[],"default_left":[0,0,0,0,0,0,0,0,0,0,0,0,0,0,0,0,0,0,0,0,0,0,0,0,0,0,0,0,0,0,0],"id":43,"left_children":[1,3,5,7,9,11,13,15,17,19,21,23,25,27,29,-1,-1,-1,-1,-1,-1,-1,-1,-1,-1,-1,-1,-1,-1,-1,-1],"loss_changes":[1.6479152E5,7.737738E4,5.8138266E4,1.5280781E4,3.1674451E4,3.1306062E4,3.3395297E4,1.6302998E4,1.3751719E4,3.6608445E4,2.238664E4,2.6068078E4,3.0829482E4,2.9803191E4,2.223018E4,0E0,0E0,0E0,0E0,0E0,0E0,0E0,0E0,0E0,0E0,0E0,0E0,0E0,0E0,0E0,0E0],"parents":[2147483647,0,0,1,1,2,2,3,3,4,4,5,5,6,6,7,7,8,8,9,9,10,10,11,11,12,12,13,13,14,14],"right_children":[2,4,6,8,10,12,14,16,18,20,22,24,26,28,30,-1,-1,-1,-1,-1,-1,-1,-1,-1,-1,-1,-1,-1,-1,-1,-1],"split_conditions":[7.2E1,4.4E1,9.8E1,8E0,6.892E1,1.23E2,1.36E2,6.1579216E1,1.20333336E2,1.1E2,7.807168E1,1.2695238E2,7.2E1,4.7163982E1,1.01E2,-1.8772831E-3,1.7168697E0,-3.3429292E-1,9.506938E-1,-5.3096797E-2,1.9978139E-1,-1.3858797E-1,2.2292411E0,-3.5012607E-2,7.382369E-1,2.9243264E-1,2.892231E-2,5.3412702E-2,2.5220656E-1,5.7997364E-1,2.3152836E-1],"split_indices":[14,9,17,9,3,14,8,25,20,9,26,23,19,27,1,0,0,0,0,0,0,0,0,0,0,0,0,0,0,0,0],"split_type":[0,0,0,0,0,0,0,0,0,0,0,0,0,0,0,0,0,0,0,0,0,0,0,0,0,0,0,0,0,0,0],"sum_hessian":[4.8655E4,1.8274E4,3.0381E4,4.045E3,1.4229E4,1.691E4,1.3471E4,1.86E2,3.859E3,7.334E3,6.895E3,1.2063E4,4.847E3,9.737E3,3.734E3,1.72E2,1.4E1,3.839E3,2E1,5.386E3,1.948E3,6.886E3,9E0,1.1954E4,1.09E2,1.72E3,3.127E3,7.181E3,2.556E3,5.34E2,3.2E3],"tree_param":{"num_deleted":"0","num_feature":"29","num_nodes":"31","size_leaf_vector":"1"}},{"base_weights":[-1.12147376E-1,-2.3210883E0,1.2598743E0,-3.4051816E0,1.1610887E0,8.5997987E-1,5.7726865E0,-5.6672764E0,-2.0506072E0,1.1919291E1,6.008095E-1,2.9778447E-2,2.5417113E0,8.092703E0,9.8823494E-1,-3.144599E-1,1.0131212E-1,9.9898756E-2,-1.3558988E-1,6.980766E-1,-6.5242416E-1,-2.9488578E-2,2.2110155E-1,-5.39778E-2,7.7520154E-2,3.602574E-1,8.944648E-2,4.710754E-1,-1.3577905E-1,-4.6365116E-2,9.180522E-1],"categories":[],"categories_nodes":[],"categories_segments":[],"categories_sizes":[],"default_left":[0,0,0,0,0,0,0,0,0,0,0,0,0,0,0,0,0,0,0,0,0,0,0,0,0,0,0,0,0,0,0],"id":44,"left_children":[1,3,5,7,9,11,13,15,17,19,21,23,25,27,29,-1,-1,-1,-1,-1,-1,-1,-1,-1,-1,-1,-1,-1,-1,-1,-1],"loss_changes":[1.4674105E5,7.003408E4,5.389448E4,4.333725E4,2.6544398E4,3.8306797E4,2.697611E4,2.5362438E4,2.3695844E4,1.1298045E4,1.9055803E4,3.0989686E4,3.182077E4,2.353636E4,2.6473244E4,0E0,0E0,0E0,0E0,0E0,0E0,0E0,0E0,0E0,0E0,0E0,0E0,0E0,0E0,0E0,0E0],"parents":[2147483647,0,0,1,1,2,2,3,3,4,4,5,5,6,6,7,7,8,8,9,9,10,10,11,11,12,12,13,13,14,14],"right_children":[2,4,6,8,10,12,14,16,18,20,22,24,26,28,30,-1,-1,-1,-1,-1,-1,-1,-1,-1,-1,-1,-1,-1,-1,-1,-1],"split_conditions":[7.3E1,1.06E2,1.1871429E2,5.4E1,1.517E1,1.21E2,1.45E2,1.37E2,4.3E1,1.66E2,1E0,9.5E1,8.342857E1,1.95E2,2.08E2,-3.144599E-1,1.0131212E-1,9.9898756E-2,-1.3558988E-1,6.980766E-1,-6.5242416E-1,-2.9488578E-2,2.2110155E-1,-5.39778E-2,7.7520154E-2,3.602574E-1,8.944648E-2,4.710754E-1,-1.3577905E-1,-4.6365116E-2,9.180522E-1],"split_indices":[9,14,23,17,6,9,13,1,18,19,5,17,21,10,9,0,0,0,0,0,0,0,0,0,0,0,0,0,0,0,0],"split_type":[0,0,0,0,0,0,0,0,0,0,0,0,0,0,0,0,0,0,0,0,0,0,0,0,0,0,0,0,0,0,0],"sum_hessian":[4.8416E4,1.855E4,2.9866E4,1.4146E4,4.404E3,2.7436E4,2.43E3,5.297E3,8.849E3,2.17E2,4.187E3,1.8369E4,9.067E3,1.636E3,7.94E2,4.901E3,3.96E2,1.242E3,7.607E3,2.01E2,1.6E1,3.193E3,9.94E2,1.0621E4,7.748E3,1.259E3,7.808E3,1.457E3,1.79E2,7.16E2,7.8E1],"tree_param":{"num_deleted":"0","num_feature":"29","num_nodes":"31","size_leaf_vector":"1"}},{"base_weights":[1.7573535E-1,-2.1396878E0,1.5108243E0,-4.8335586E0,-8.344893E-1,5.009972E-1,3.015759E0,-4.9412537E0,1.923584E1,1.0638756E1,-1.0965121E0,-1.0539243E0,1.703711E0,2.6273334E0,9.755335E0,2.603942E-1,-2.5752735E-1,-1.386756E0,1.451835E0,3.297012E-1,2.4764E0,1.3059511E-2,-1.4877085E-1,-1.7218854E-1,-6.9753216E-3,4.977017E-1,7.218994E-2,2.2779146E-2,1.9281702E-1,3.1318492E-1,9.866355E-1],"categories":[],"categories_nodes":[],"categories_segments":[],"categories_sizes":[],"default_left":[0,0,0,0,0,0,0,0,0,0,0,0,0,0,0,0,0,0,0,0,0,0,0,0,0,0,0,0,0,0,0],"id":45,"left_children":[1,3,5,7,9,11,13,15,17,19,21,23,25,27,29,-1,-1,-1,-1,-1,-1,-1,-1,-1,-1,-1,-1,-1,-1,-1,-1],"loss_changes":[1.4998056E5,6.23845E4,4.6764953E4,1.510625E4,3.5948395E4,3.44439E4,3.2322797E4,1.2274656E4,1.2774588E4,4.1671594E4,2.981679E4,1.755418E4,2.2254809E4,3.1186625E4,2.332195E4,0E0,0E0,0E0,0E0,0E0,0E0,0E0,0E0,0E0,0E0,0E0,0E0,0E0,0E0,0E0,0E0],"parents":[2147483647,0,0,1,1,2,2,3,3,4,4,5,5,6,6,7,7,8,8,9,9,10,10,11,11,12,12,13,13,14,14],"right_children":[2,4,6,8,10,12,14,16,18,20,22,24,26,28,30,-1,-1,-1,-1,-1,-1,-1,-1,-1,-1,-1,-1,-1,-1,-1,-1],"split_conditions":[7.1E1,5.4E1,1.02E2,7.069378E1,8E0,8.1E1,5.8268906E1,8E0,2.934E1,1.75E2,7.649E1,3.3099728E1,2.3E1,9.4E1,8.811E1,2.603942E-1,-2.5752735E-1,-1.386756E0,1.451835E0,3.297012E-1,2.4764E0,1.3059511E-2,-1.4877085E-1,-1.7218854E-1,-6.9753216E-3,4.977017E-1,7.218994E-2,2.2779146E-2,1.9281702E-1,3.1318492E-1,9.866355E-1],"split_indices":[9,17,14,26,9,17,27,13,3,8,3,27,14,8,6,0,0,0,0,0,0,0,0,0,0,0,0,0,0,0,0],"split_type":[0,0,0,0,0,0,0,0,0,0,0,0,0,0,0,0,0,0,0,0,0,0,0,0,0,0,0,0,0,0,0],"sum_hessian":[4.8515E4,1.7743E4,3.0772E4,5.79E3,1.1953E4,1.8416E4,1.2356E4,5.765E3,2.5E1,2.66E2,1.1687E4,8.032E3,1.0384E4,1.1684E4,6.72E2,1.16E2,5.649E3,4E0,2.1E1,2.42E2,2.4E1,6.785E3,4.902E3,2.222E3,5.81E3,3.16E2,1.0068E4,4.223E3,7.461E3,4.99E2,1.73E2],"tree_param":{"num_deleted":"0","num_feature":"29","num_nodes":"31","size_leaf_vector":"1"}},{"base_weights":[-4.4078305E-2,-2.192921E0,1.2096537E0,-5.285266E0,-1.1946981E0,2.8996953E-1,3.1147635E0,-6.16658E0,-1.128364E0,-3.2164233E0,-1.295862E-1,-1.3920165E0,1.5524297E0,2.9814897E0,2.4424887E1,-2.940359E-1,-1.0263394E0,-2.2133277E-1,1.9086882E-1,-1.9007416E-1,2.5017864E-1,-1.08920194E-1,6.6846795E-2,6.2075055E-1,-8.024766E-2,3.5414305E-2,2.994862E-1,1.7575692E-1,-1.356503E-1,7.3887986E-1,3.169523E0],"categories":[],"categories_nodes":[],"categories_segments":[],"categories_sizes":[],"default_left":[0,0,0,0,0,0,0,0,0,0,0,0,0,0,0,0,0,0,0,0,0,0,0,0,0,0,0,0,0,0,0],"id":46,"left_children":[1,3,5,7,9,11,13,15,17,19,21,23,25,27,29,-1,-1,-1,-1,-1,-1,-1,-1,-1,-1,-1,-1,-1,-1,-1,-1],"loss_changes":[1.3100193E5,5.5300766E4,5.3804316E4,1.6010039E4,2.9169043E4,4.3982855E4,2.832232E4,1.4686172E4,1.2512266E4,2.249718E4,2.6663049E4,2.6130256E4,4.4315027E4,3.0206672E4,2.2369797E4,0E0,0E0,0E0,0E0,0E0,0E0,0E0,0E0,0E0,0E0,0E0,0E0,0E0,0E0,0E0,0E0],"parents":[2147483647,0,0,1,1,2,2,3,3,4,4,5,5,6,6,7,7,8,8,9,9,10,10,11,11,12,12,13,13,14,14],"right_children":[2,4,6,8,10,12,14,16,18,20,22,24,26,28,30,-1,-1,-1,-1,-1,-1,-1,-1,-1,-1,-1,-1,-1,-1,-1,-1],"split_conditions":[7.1E1,4.5E1,1E0,4.4725105E1,8.2E1,8E1,1.3573334E2,1.14666664E2,5E1,1.38E2,1.89E2,1.115E1,5.053872E1,1.7E2,2.27E2,-2.940359E-1,-1.0263394E0,-2.2133277E-1,1.9086882E-1,-1.9007416E-1,2.5017864E-1,-1.08920194E-1,6.6846795E-2,6.2075055E-1,-8.024766E-2,3.5414305E-2,2.994862E-1,1.7575692E-1,-1.356503E-1,7.3887986E-1,3.169523E0],"split_indices":[17,14,5,26,8,9,24,20,17,9,0,3,27,10,17,0,0,0,0,0,0,0,0,0,0,0,0,0,0,0,0],"split_type":[0,0,0,0,0,0,0,0,0,0,0,0,0,0,0,0,0,0,0,0,0,0,0,0,0,0,0,0,0,0,0],"sum_hessian":[4.8624E4,1.7916E4,3.0708E4,4.371E3,1.3545E4,2.0711E4,9.997E3,3.606E3,7.65E2,4.673E3,8.872E3,8.88E3,1.1831E4,9.936E3,6.1E1,3.537E3,6.9E1,4.59E2,3.06E2,4.363E3,3.1E2,3.701E3,5.171E3,1.34E2,8.746E3,9.941E3,1.89E3,9.085E3,8.51E2,5E1,1.1E1],"tree_param":{"num_deleted":"0","num_feature":"29","num_nodes":"31","size_leaf_vector":"1"}},{"base_weights":[-3.7645277E-2,-1.9698204E0,1.1217119E0,-4.435452E0,-6.671511E-1,3.2445442E-2,2.4926562E0,-4.825737E0,3.4519262E0,-8.8668513E-1,9.860622E0,-1.9488457E-1,9.3658695E0,1.663829E1,2.3363454E0,-9.1208436E-2,-2.935935E-1,1.3083806E0,4.9965423E-2,-2.382602E-2,-2.553719E-1,8.0236435E-1,-9.5043615E-2,1.7786935E-2,-1.4637466E-1,1.9132E0,3.7983903E-1,4.142612E-1,2.0623903E0,7.1497455E-2,2.0998834E-1],"categories":[],"categories_nodes":[],"categories_segments":[],"categories_sizes":[],"default_left":[0,0,0,0,0,0,0,0,0,0,0,0,0,0,0,0,0,0,0,0,0,0,0,0,0,0,0,0,0,0,0],"id":47,"left_children":[1,3,5,7,9,11,13,15,17,19,21,23,25,27,29,-1,-1,-1,-1,-1,-1,-1,-1,-1,-1,-1,-1,-1,-1,-1,-1],"loss_changes":[1.09002305E5,5.8607844E4,4.541487E4,1.9434742E4,2.7606842E4,3.5961543E4,2.9733766E4,1.8864062E4,1.6576295E4,2.0249191E4,1.7785023E4,2.4896781E4,2.0312031E4,2.98763E4,2.2489766E4,0E0,0E0,0E0,0E0,0E0,0E0,0E0,0E0,0E0,0E0,0E0,0E0,0E0,0E0,0E0,0E0],"parents":[2147483647,0,0,1,1,2,2,3,3,4,4,5,5,6,6,7,7,8,8,9,9,10,10,11,11,12,12,13,13,14,14],"right_children":[2,4,6,8,10,12,14,16,18,20,22,24,26,28,30,-1,-1,-1,-1,-1,-1,-1,-1,-1,-1,-1,-1,-1,-1,-1,-1],"split_conditions":[7.2E1,5.7E1,9.8E1,5.4483387E1,1.9E2,1.3035715E2,1.6E1,4.4E1,8E0,1.28E2,1.08E2,1.32E2,1.8E1,1.51E2,1E0,-9.1208436E-2,-2.935935E-1,1.3083806E0,4.9965423E-2,-2.382602E-2,-2.553719E-1,8.0236435E-1,-9.5043615E-2,1.7786935E-2,-1.4637466E-1,1.9132E0,3.7983903E-1,4.142612E-1,2.0623903E0,7.1497455E-2,2.0998834E-1],"split_indices":[14,9,17,26,17,22,9,19,9,20,19,13,17,8,5,0,0,0,0,0,0,0,0,0,0,0,0,0,0,0,0],"split_type":[0,0,0,0,0,0,0,0,0,0,0,0,0,0,0,0,0,0,0,0,0,0,0,0,0,0,0,0,0,0,0],"sum_hessian":[4.8658E4,1.8247E4,3.0411E4,6.307E3,1.194E4,1.6947E4,1.3464E4,6.01E3,2.97E2,1.1697E4,2.43E2,1.6545E4,4.02E2,1.46E2,1.3318E4,1.554E3,4.456E3,2.8E1,2.69E2,1.0662E4,1.035E3,1.59E2,8.4E1,1.3771E4,2.774E3,2.2E1,3.8E2,1.1E2,3.6E1,8.961E3,4.357E3],"tree_param":{"num_deleted":"0","num_feature":"29","num_nodes":"31","size_leaf_vector":"1"}},{"base_weights":[7.466951E-3,-1.7452357E0,1.4300412E0,-3.2231405E0,1.3562134E-1,7.4994165E-1,3.9851544E0,-1.6860634E0,-5.0481157E0,1.3992237E1,-1.4733239E-1,-3.0025864E-1,2.0129097E0,3.1560397E0,1.1180145E1,7.908694E-1,-9.968434E-2,-2.2519338E-1,-6.264119E-1,-1.073853E-1,1.0523428E0,-5.966265E-2,1.6002156E-1,-1.6558419E-1,1.8635428E-2,1.1845598E-1,-1.8168227E-1,2.0856242E-1,-8.6298935E-2,6.5512925E-1,-4.729886E-1],"categories":[],"categories_nodes":[],"categories_segments":[],"categories_sizes":[],"default_left":[0,0,0,0,0,0,0,0,0,0,0,0,0,0,0,0,0,0,0,0,0,0,0,0,0,0,0,0,0,0,0],"id":48,"left_children":[1,3,5,7,9,11,13,15,17,19,21,23,25,27,29,-1,-1,-1,-1,-1,-1,-1,-1,-1,-1,-1,-1,-1,-1,-1,-1],"loss_changes":[1.2070057E5,6.0287164E4,4.6430938E4,3.4059758E4,3.7421996E4,2.7993625E4,3.3472766E4,3.553674E4,2.2546016E4,2.1792684E4,3.2756803E4,2.335566E4,1.9281457E4,2.4976875E4,2.3137773E4,0E0,0E0,0E0,0E0,0E0,0E0,0E0,0E0,0E0,0E0,0E0,0E0,0E0,0E0,0E0,0E0],"parents":[2147483647,0,0,1,1,2,2,3,3,4,4,5,5,6,6,7,7,8,8,9,9,10,10,11,11,12,12,13,13,14,14],"right_children":[2,4,6,8,10,12,14,16,18,20,22,24,26,28,30,-1,-1,-1,-1,-1,-1,-1,-1,-1,-1,-1,-1,-1,-1,-1,-1],"split_conditions":[8E1,8.1E1,1.29E2,1E0,1.126E1,9.5E1,5.6374813E1,8E0,7.8190475E1,7.757143E1,1E0,3.1646194E1,1.73E2,5.6849846E1,3.6E2,7.908694E-1,-9.968434E-2,-2.2519338E-1,-6.264119E-1,-1.073853E-1,1.0523428E0,-5.966265E-2,1.6002156E-1,-1.6558419E-1,1.8635428E-2,1.1845598E-1,-1.8168227E-1,2.0856242E-1,-8.6298935E-2,6.5512925E-1,-4.729886E-1],"split_indices":[9,14,14,7,6,17,27,9,23,22,5,27,10,25,2,0,0,0,0,0,0,0,0,0,0,0,0,0,0,0,0],"split_type":[0,0,0,0,0,0,0,0,0,0,0,0,0,0,0,0,0,0,0,0,0,0,0,0,0,0,0,0,0,0,0],"sum_hessian":[4.8407E4,2.1687E4,2.672E4,1.2144E4,9.543E3,2.1104E4,5.616E3,6.593E3,5.551E3,1.9E2,9.353E3,1.1523E4,9.581E3,5.037E3,5.79E2,1.13E2,6.48E3,5.176E3,3.75E2,5.8E1,1.32E2,7.127E3,2.226E3,2.104E3,9.419E3,9.013E3,5.68E2,4.17E3,8.67E2,5.3E2,4.9E1],"tree_param":{"num_deleted":"0","num_feature":"29","num_nodes":"31","size_leaf_vector":"1"}},{"base_weights":[-4.6271604E-2,-1.9809228E0,1.0860345E0,-4.6801558E0,-1.1028473E0,-5.799589E-1,2.1289253E0,-4.7724514E0,2.946705E1,-2.627355E0,1.3643551E-1,2.2256427E0,-1.3307508E0,1.9696506E0,1.3414105E1,1.2875873E0,-2.43101E-1,3.773798E-1,2.9322383E0,5.880302E-1,-1.480899E-1,2.0601632E-2,-4.7391602E-1,6.879366E-2,6.1098593E-1,5.2244335E-2,-1.1963729E-1,1.134598E-1,-1.7830765E-1,7.904297E-1,-1.8894223E0],"categories":[],"categories_nodes":[],"categories_segments":[],"categories_sizes":[],"default_left":[0,0,0,0,0,0,0,0,0,0,0,0,0,0,0,0,0,0,0,0,0,0,0,0,0,0,0,0,0,0,0],"id":49,"left_children":[1,3,5,7,9,11,13,15,17,19,21,23,25,27,29,-1,-1,-1,-1,-1,-1,-1,-1,-1,-1,-1,-1,-1,-1,-1,-1],"loss_changes":[1.0636977E5,4.2484164E4,5.32193E4,1.4007859E4,2.5558764E4,2.4844006E4,3.383382E4,1.2124789E4,7.232089E3,2.9224117E4,1.9779355E4,2.1129908E4,2.3475701E4,3.081293E4,3.2719598E4,0E0,0E0,0E0,0E0,0E0,0E0,0E0,0E0,0E0,0E0,0E0,0E0,0E0,0E0,0E0,0E0],"parents":[2147483647,0,0,1,1,2,2,3,3,4,4,5,5,6,6,7,7,8,8,9,9,10,10,11,11,12,12,13,13,14,14],"right_children":[2,4,6,8,10,12,14,16,18,20,22,24,26,28,30,-1,-1,-1,-1,-1,-1,-1,-1,-1,-1,-1,-1,-1,-1,-1,-1],"split_conditions":[7.1E1,4.5E1,9.2E1,2.27E2,1.91E2,4.9E1,2.27E2,7.42E0,2.5E1,1.115E1,1.9E2,5.1008507E1,6.6E1,1E0,1.95E2,1.2875873E0,-2.43101E-1,3.773798E-1,2.9322383E0,5.880302E-1,-1.480899E-1,2.0601632E-2,-4.7391602E-1,6.879366E-2,6.1098593E-1,5.2244335E-2,-1.1963729E-1,1.134598E-1,-1.7830765E-1,7.904297E-1,-1.8894223E0],"split_indices":[17,14,8,1,0,19,17,